tree
version=v4
num_class=1
num_tree_per_iteration=1
label_index=0
max_feature_idx=44
objective=regression
feature_names=returns hl_range oc_range overnight_gap volume_change price_vs_ma5 volume_vs_ma5 volatility_5 momentum_5 return_mean_5 return_std_5 return_skew_5 hl_volatility_5 price_vs_ma10 volume_vs_ma10 volatility_10 momentum_10 return_mean_10 return_std_10 return_skew_10 hl_volatility_10 price_vs_ma20 volume_vs_ma20 volatility_20 momentum_20 return_mean_20 return_std_20 return_skew_20 hl_volatility_20 price_vs_ma50 volume_vs_ma50 volatility_50 momentum_50 return_mean_50 return_std_50 return_skew_50 hl_volatility_50 ma_cross_5_20 ma_cross_10_50 price_position_5 price_position_20 price_position_50 trend_10 trend_20 trend_50
feature_infos=[-1.5160535446593024:0.82927939891068381] [0:3.2000000000000002] [-0.73684210526315785:inf] [-1:9.1001382960791908] [-7.4747721823978699:8.4633703847187309] [-0.73262032085561501:1.1003134796238245] [-1:4] [0:0.75207725266513548] [-0.86842105263157898:4.5999999999999996] [-0.40562964945845714:0.34455331954822072] [0:0.75207725266513548] [-634.46268492891079:48.681034404715732] [0:1.3666666666666665] [-0.82517482517482521:2.0804597701149423] [-1:9] [0:0.65135168937391419] [-0.92836676217765046:5.9249148304571344] [-0.26361960973342269:0.19351257531468152] [0:0.65135168937391419] [-3.1622777050689201:3.162315791323119] [0:1.3500000000000001] [-0.91184767277856138:3.1135840368380658] [-1:19] [0:0.45548531691149224] [-0.9358974358974359:6.2898554017227815] [-0.13736354571277459:0.099324185533461118] [0:0.45548531691149224] [-4.4721361730640989:4.4721359717205242] [0:1.325] [-0.93159680420269231:3.8656499636891795] [-1:49] [0:0.30255888347643373] [-0.94252875871529163:12.783783783783784] [-0.057129412157332783:0.052469856261482935] [0:0.30255888347643373] [-7.071067819419282:7.0710678132984421] [0:0.85285714285714276] [-9.2240000000000002:0.50787819316103522] [-8.8992000000000004:0.93795918367346942] [0:0.99999999999986566] [0:0.99999999999991251] [0:0.99999999999993783] [-0.92836676217765046:5.9249148304571344] [-0.9358974358974359:6.2898554017227815] [-0.94252875871529163:12.783783783783784]
tree_sizes=3132 3104 3099 3123 3149 3103 3060 3084 3086 3113 3105 3098 3094 3069 3094 3087 3130 3114 3068 3112 3084 3081 3080 3055 3063 3060 3028 3055 3106 3018 3046 3086 3030 3083 3074 3073 3067 3052 3086 3047 3069 3077 3058 3057 2951 3033 3037 3062 3008 3005 3051 3033 3052 3086 3035 3005 3114 3057 3025 3038 3008 3038 2960 3021 3012 3023 2998 3013 2973 2959 3044 3088 2911 3038 3031 2961 2940 2910 2970 2932 3045 2967 3106 3002 2964 2942 3009 2997 3072 3009 3033 3009 2969 3066 2991

Tree=0
num_leaves=31
num_cat=0
split_feature=39 0 39 7 7 23 2 15 5 1 34 34 30 0 13 30 0 23 14 6 1 11 39 7 38 15 30 12 30 39
split_gain=7.16519 3.5558 2.33682 2.68201 0.887599 0.750441 0.710719 0.501856 0.494599 0.926773 0.592682 0.481631 0.456547 0.343902 0.338317 0.325869 0.435461 0.31806 0.315182 0.310274 0.302456 0.290119 0.288572 0.283079 0.265221 0.217055 0.211626 0.206728 0.201595 0.197906
threshold=0.4810471477383384 -0.086074644883211968 0.99999999823038455 0.051668688417591258 0.1355358889343492 0.073833841205459994 -0.07407406697244294 0.06192786844759126 -0.014336914916385257 1.0000000180025095e-35 0.067892657858823632 0.028321645644739758 0.13628546413458134 -0.18232154943535656 -0.16902887437280079 -0.34014252472599871 0.034358261916831764 0.11922283411889183 1.0000000180025095e-35 -0.59661821756127453 0.14285714285714299 1.8500584385330578 1.0000000180025095e-35 0.1355358889343492 0.032789413215928653 0.032920332019782346 0.28866249625711693 0.13682030421629884 -0.61618104125243323 0.59090903834041286
decision_type=2 2 2 2 2 2 2 2 2 2 2 2 2 2 2 2 2 2 2 2 2 2 2 2 2 2 2 2 2 2
left_child=1 5 7 11 12 18 -3 15 9 10 -8 -4 20 19 26 16 -2 29 -1 -7 -5 27 25 -12 -23 -11 -9 -6 -13 -16
right_child=2 6 3 4 21 13 8 14 -10 22 23 28 -14 -15 17 -17 -18 -19 -20 -21 -22 24 -24 -25 -26 -27 -28 -29 -30 -31
leaf_value=0.0016040739635715397 -3.662216652350358e-05 0.0010121760865730055 -0.00012808277762514097 -0.0014494545331249693 -0.0021433647676281859 0.0053665893131682029 0.00057819927374557834 0.0075094845658040203 0.00018943611276742031 0.00031541957501672504 0.0012452622223092084 -0.00068922401537718889 -0.00057792278714193109 0.0017198340684958264 9.6637858395050045e-05 8.6810506437375262e-05 -0.00052588861040001272 -0.0010810343961364906 0.00073835127511187051 0.0025632178498816763 -0.0035885030459655949 -0.0076725574050521914 0.00020421368357980235 0.0029320460779415705 -0.0020337199743119573 0.00071145333679959713 0.00024405209968445419 -0.0049276223852599867 -0.00031488905774985964 -0.00037917877355815967
leaf_weight=1637 58478 3198 20262 3662 301 122 14215 22 105488 9871 1703 7409 1796 1651 2983 61511 4940 1306 3039 639 177 69 46016 298 34 5380 21 92 7157 8399
leaf_count=1637 58478 3198 20262 3662 301 122 14215 22 105488 9871 1703 7409 1796 1651 2983 61511 4940 1306 3039 639 177 69 46016 298 34 5380 21 92 7157 8399
internal_value=0.000103805 0.000314791 -0.000124499 -0.000456085 -0.00142069 0.00141405 0.000272911 -2.58035e-05 0.000259962 0.000355914 0.000692151 -0.000286133 -0.00124072 0.00213217 -0.00032498 4.72469e-06 -7.48138e-05 -0.000340354 0.00104252 0.00301984 -0.00154947 -0.00345446 0.000266837 0.00149909 -0.00586357 0.000455457 0.00408582 -0.00280898 -0.000505642 -0.000254917
internal_weight=371876 193257 178619 40959 6131 7088 186169 137660 182971 77483 16216 34828 5635 2412 12731 124929 63418 12688 4676 761 3839 496 61267 2001 103 15251 43 393 14566 11382
internal_count=371876 193257 178619 40959 6131 7088 186169 137660 182971 77483 16216 34828 5635 2412 12731 124929 63418 12688 4676 761 3839 496 61267 2001 103 15251 43 393 14566 11382
is_linear=0
shrinkage=1


Tree=1
num_leaves=31
num_cat=0
split_feature=39 0 39 10 10 15 10 39 23 31 10 39 12 2 22 23 22 13 0 22 23 28 13 23 22 0 40 31 35 11
split_gain=6.47745 3.15589 2.19206 2.42153 0.801988 0.691628 0.683067 1.07626 0.454406 0.43637 0.434924 0.399526 0.379303 0.338395 0.335561 0.305551 0.285268 0.284983 0.269772 0.358386 0.264479 0.311453 0.242081 0.249563 0.237102 0.282467 0.230957 0.263955 0.379354 0.2241
threshold=0.44954101144834396 -0.086074644883211968 0.99999999823038455 0.051668688417591258 0.1355358889343492 0.095850829412302732 0.025320592408493527 1.0000000180025095e-35 0.049867180452800565 0.030502340449447978 0.1355358889343492 1.0000000180025095e-35 0.15942514815244863 -0.15384612915783852 0.15676045322728602 0.065036314575645918 -0.41979027120580686 -0.20650702640378166 0.064538608833828184 -0.53571030128961128 0.16094697495873797 0.054129966608616083 0.015787300661728353 0.038211962570093246 -0.54097448515377533 0.029853005865400541 0.37499999998230632 0.12600413161633636 -0.17219019618097434 1.3606798860528675
decision_type=2 2 2 2 2 2 2 2 2 2 2 2 2 2 2 2 2 2 2 2 2 2 2 2 2 2 2 2 2 2
left_child=1 5 8 9 14 16 -3 10 24 -4 22 12 -7 -14 15 -5 -1 -10 -19 -20 29 -22 23 -8 25 -2 27 -12 -29 -6
right_child=2 6 3 4 20 11 7 -9 17 -11 26 -13 13 -15 -16 -17 -18 18 19 -21 21 -23 -24 -25 -26 -27 -28 28 -30 -31
leaf_value=0.0016064209903037482 -0.00013974882945751526 9.0556546287316197e-05 -0.00023694739114351931 -0.001186282701197816 -0.002001045238996778 0.0026406235285292043 0.00042556768441661535 0.00016725727497568358 0.005094646991334887 -0.00060540555908561423 0.0018586448117009311 0.0015076282751135125 0.0092654031176633185 0.0030763470045909241 -0.00073493464932843035 -0.0021233077641244192 0.00077556540973727219 -0.00024423378824844384 -0.0015805699193804713 -0.00045578855920586927 -0.00066861266258686663 -0.0075119841039398647 -0.0003885621340297335 0.00079844025399984891 -3.0234733049572814e-05 -0.00063225396630216062 -0.00089504023927555352 0.009610867534196179 0.0026688837041182511 -0.0046515989866057657
leaf_weight=1406 38935 111313 22150 2259 283 523 9110 48805 24 12678 202 876 46 49 1913 1463 4108 17609 889 3615 24 70 620 9017 80480 3155 44 32 59 119
leaf_count=1406 38935 111313 22150 2259 283 523 9110 48805 24 12678 202 876 46 49 1913 1463 4108 17609 889 3615 24 70 620 9017 80480 3155 44 32 59 119
internal_value=-7.6203e-07 0.000207596 -0.000209757 -0.000532716 -0.00144929 0.00124859 0.000166857 0.000291888 -0.000118309 -0.000371218 0.000610353 0.00220556 0.00318637 0.00613232 -0.00127816 -0.00155599 0.000988355 -0.00032687 -0.000333004 -0.000678938 -0.0033828 -0.00582044 0.00057799 0.000611327 -8.06008e-05 -0.000176786 0.00239514 0.00290642 0.00517278 -0.00279906
internal_weight=371876 186210 185666 40959 6131 7008 179202 67889 144707 34828 19084 1494 618 95 5635 3722 5514 22137 22113 4504 496 94 18747 18127 122570 42090 337 293 91 402
internal_count=371876 186210 185666 40959 6131 7008 179202 67889 144707 34828 19084 1494 618 95 5635 3722 5514 22137 22113 4504 496 94 18747 18127 122570 42090 337 293 91 402
is_linear=0
shrinkage=0.05


Tree=2
num_leaves=31
num_cat=0
split_feature=39 0 15 39 39 7 39 7 15 7 39 39 12 7 6 30 30 31 3 30 8 38 28 40 26 0 1 40 31 31
split_gain=5.89461 3.18643 2.15653 1.15608 0.909949 0.994343 0.710345 0.676468 0.55594 0.553495 0.441696 0.393665 0.349605 0.336099 0.322627 0.283848 0.280373 0.268245 0.31901 0.254755 0.249649 0.317154 0.294457 0.22833 0.228 0.221761 0.210773 0.209127 0.238196 0.20402
threshold=0.63636363635515159 -0.086074644883211968 0.064044698866568842 0.99999999823038455 0.25123161386514753 0.036218243503316892 0.99999999680280272 0.025113934046683398 0.095850829412302732 0.1355358889343492 1.0000000180025095e-35 1.0000000180025095e-35 0.13682030421629884 0.1355358889343492 -0.26199077404633841 -0.67849382092118715 -0.37674011039461169 0.097312965363918244 -0.043424817204773598 1.5032799734608766 0.066666652043660193 -0.023203188404735575 0.083942055806094498 0.81818174716927194 0.13593700127597366 0.034358261916831764 0.12058521111542783 0.37499999998230632 0.12600413161633636 0.14976328000031755
decision_type=2 2 2 2 2 2 2 2 2 2 2 2 2 2 2 2 2 2 2 2 2 2 2 2 2 2 2 2 2 2
left_child=1 8 6 24 5 23 15 -8 14 19 12 13 -10 -7 -1 25 -9 -14 -19 26 -11 29 -23 -3 -4 -2 -5 28 -15 -22
right_child=2 4 3 9 -6 11 7 16 10 20 -12 -13 17 27 -16 -17 -18 18 -20 -21 21 22 -24 -25 -26 -27 -28 -29 -30 -31
leaf_value=0.0015739252541850275 -0.00023633464584777364 0.00014954985194939267 -0.00049610829253176377 -0.001386724575077534 6.9577083479794803e-06 0.00066528036976844316 -0.00021682948543884554 -0.00083825956029600832 0.0023764779234695345 -0.0012739626531378953 0.0013461585453062646 0.0003138219323897425 0.0025790917592543126 0.0017657585361422229 0.00070445900123866385 -6.9109010601321733e-05 -0.00040226934048124353 0.0038298139066371088 0.010519261800152871 -0.00025444774312912349 -0.0043627911213872357 -0.00094057901071688689 -0.0061515573351553689 -0.00024489179705397155 -0.0015745944639338908 -0.00085600600513205383 -0.0025665947931653027 -0.00085038974185716034 0.0049175551745930177 -0.0085410842608702273
leaf_weight=1440 19614 96812 6929 2365 108653 10402 23195 8479 482 130 1113 14148 58 202 4307 59540 6633 39 39 424 167 123 36 3804 533 1567 467 44 91 40
leaf_count=1440 19614 96812 6929 2365 108653 10402 23195 8479 482 130 1113 14148 58 202 4307 59540 6633 39 39 424 167 123 36 3804 533 1567 467 44 91 40
internal_value=-7.25066e-07 0.00014541 -0.000271884 -0.000934861 0.000112939 0.000204651 -0.00020938 -0.000386752 0.0011615 -0.00165151 0.00194963 0.000487708 0.00302798 0.000716323 0.000923211 -0.000125143 -0.000647228 0.0052968 0.00724774 -0.00141166 -0.00321532 -0.00389068 -0.00215497 0.000134587 -0.000573833 -0.000282419 -0.00158314 0.00227632 0.00276305 -0.00519807
internal_weight=371876 241634 130242 11214 234156 125503 119028 38307 7478 3752 1731 24887 618 10739 5747 80721 15112 136 78 3256 496 366 159 100616 7462 21181 2832 337 293 207
internal_count=371876 241634 130242 11214 234156 125503 119028 38307 7478 3752 1731 24887 618 10739 5747 80721 15112 136 78 3256 496 366 159 100616 7462 21181 2832 337 293 207
is_linear=0
shrinkage=0.05


Tree=3
num_leaves=31
num_cat=0
split_feature=39 0 39 7 7 39 23 7 23 15 7 31 0 23 41 22 0 11 30 30 29 13 31 36 30 0 22 1 24 25
split_gain=5.3237 2.48176 1.88664 2.02466 0.673142 0.769061 0.661901 0.59826 0.383859 0.374071 0.351928 0.324288 0.308299 0.277044 0.271574 0.263867 0.289515 0.257119 0.234997 0.227967 0.218855 0.218462 0.222837 0.212732 0.209257 0.271211 0.203837 0.20915 0.203519 0.202217
threshold=0.40000152571890707 -0.086074644883211968 0.99999999823038455 0.051668688417591258 0.025320592408493527 1.0000000180025095e-35 0.077753354066041766 0.093222291315360847 0.049867180452800565 0.023071350396540721 0.1355358889343492 0.14976328000031755 -0.076960948082056793 0.11922283411889183 0.053191322065048306 0.54573016753501358 -0.18232154943535656 -0.51657021572979822 -0.47026604099167146 0.13628546413458134 0.020258889867091356 0.013380728056348596 0.053076986999992401 0.070499809607941333 -0.37674011039461169 0.026316714617541561 0.17128689645130765 0.16666667364803969 0.60000001144409243 -0.021953625318867156
decision_type=2 2 2 2 2 2 2 2 2 2 2 2 2 2 2 2 2 2 2 2 2 2 2 2 2 2 2 2 2 2
left_child=1 7 8 9 -3 10 19 18 24 -4 21 26 -10 -14 -15 16 20 -13 -1 -5 -9 22 -6 -19 25 -2 27 -8 -23 -17
right_child=2 4 3 6 5 -7 11 15 12 -11 -12 17 13 14 -16 29 -18 23 -20 -21 -22 28 -24 -25 -26 -27 -28 -29 -30 -31
leaf_value=0.0014165138970947677 -9.569757301073355e-05 8.4601366971401846e-05 -0.00018085197074344434 -0.0012489740428710708 0.00045981262930769762 0.00017599836910813375 -0.0021365711392135464 0.0029151240381598289 0.00065649604133202299 -0.00051009783355085783 0.0021625888837827133 0.00040593797967755966 -0.00027303204855015135 0.0039344455305799645 -0.0010813029972314924 0.0025779598286395631 0.0017580289513394486 -0.0017320607483226613 0.00061176667313804294 -0.0004801417121581802 0.0063542336794741834 -0.00019027882670527788 0.00087056199544802409 -0.0066763533939999641 -4.953259294506582e-06 -0.00043181384529669811 -0.0010647318119523092 -0.0049357443925156985 -0.0051975605880155533 0.00070287068325503889
leaf_weight=1246 57603 105022 18725 3000 13667 43832 986 357 837 16103 337 21 21578 27 1438 191 832 33 3515 1458 57 647 4412 88 67946 6714 470 75 21 638
leaf_count=1246 57603 105022 18725 3000 13667 43832 986 357 837 16103 337 21 21578 27 1438 191 832 33 3515 1458 57 647 4412 88 67946 6714 470 75 21 638
internal_value=-6.91506e-07 0.000200197 -0.000178849 -0.000480914 0.000162149 0.000291514 -0.00131904 0.00113418 -9.95794e-05 -0.000333226 0.000556564 -0.00216964 -0.000284143 -0.00031853 -0.000985188 0.00184465 0.00230854 -0.00448243 0.000823452 -0.000998663 0.00340212 0.000527416 0.000560333 -0.00537174 -6.62186e-05 -0.000130863 -0.00195159 -0.0023396 -0.000355932 0.00114118
internal_weight=371876 174774 197102 40959 167938 62916 6131 6836 156143 34828 19084 1673 23880 23043 1465 2075 1246 142 4761 4458 414 18747 18079 121 132263 64317 1531 1061 668 829
internal_count=371876 174774 197102 40959 167938 62916 6131 6836 156143 34828 19084 1673 23880 23043 1465 2075 1246 142 4761 4458 414 18747 18079 121 132263 64317 1531 1061 668 829
is_linear=0
shrinkage=0.05


Tree=4
num_leaves=31
num_cat=0
split_feature=5 0 7 30 0 15 2 1 5 21 26 31 30 0 13 0 6 0 7 0 30 21 13 26 16 5 31 13 0 6
split_gain=4.02051 2.3168 1.52396 0.805986 0.684394 0.609675 0.451285 0.432835 0.590593 0.386939 0.415589 0.378685 0.371013 0.768416 0.321423 0.289239 0.317802 0.26123 0.260847 0.244016 0.219346 0.218614 0.214449 0.247048 0.198838 0.349286 0.194273 0.185489 0.184299 0.17746
threshold=-0.00042990170379170954 -0.073203404467112057 0.058787408285234925 -0.28418987513767946 0.10536052180415538 0.079946841735745969 -0.07407406697244294 1.0000000180025095e-35 -0.030096689084450508 -0.052744886975242218 0.16094697495873797 0.075801811153703089 -0.34014252472599871 0.034358261916831764 0.010038426818836455 -0.18232154943535656 -0.5030036943870444 0.064538608833828184 0.12388043833834655 -0.005982100839063355 -0.8300630310229139 -0.10819809928820628 -0.0098494432686602185 0.075678665547868021 -0.22626396323282952 -0.11988389411386673 0.030324580397041317 0.1381548226237366 -0.024524262394722034 -0.54536878216123486
decision_type=2 2 2 2 2 2 2 2 2 2 2 2 2 2 2 2 2 2 2 2 2 2 2 2 2 2 2 2 2 2
left_child=1 5 12 4 19 29 -3 8 11 -6 -11 -8 13 14 -2 16 24 -5 -19 -4 26 -13 -21 -24 -7 -26 -16 -17 -9 -1
right_child=2 6 3 17 9 15 7 28 -10 10 -12 21 -14 -15 20 27 -18 18 -20 22 -22 -23 23 -25 25 -27 -28 -29 -30 -31
leaf_value=0.0012367904871923732 -4.3252521140198756e-05 0.00087023538415025134 -0.00018203150371579781 -4.3967106904683132e-05 0.0006009212209670574 0.0019028559466989945 0.00052788347069710937 0.00017717023380875197 0.00017754709109120835 -0.0020803387930272521 -0.0062831247207242279 0.0023692743184946527 -2.2143829297156965e-05 -0.00062212910919732113 -0.00022065845286057688 0.0012558546807706187 0.0018524458640553293 -0.00035802367338262913 -0.0012910682036476133 -0.00026268528819479628 -0.00012659430380970886 0.00092408320540483281 -0.00077084341182383741 -0.0014885913283247047 0.0086273733467478568 0.0023723547963020045 -0.00054479222022698671 -0.0029336517421801669 3.8193271539171416e-05 0.00056143185070222149
leaf_weight=1175 51863 2036 1623 5996 122 56 5506 32508 31227 983 64 471 75106 8558 11352 1897 702 3945 934 1225 23891 628 3857 1781 52 44 7895 26 90169 6184
leaf_count=1175 51863 2036 1623 5996 122 56 5506 32508 31227 983 64 471 75106 8558 11352 1897 702 3945 934 1225 23891 628 3857 1781 52 44 7895 26 90169 6184
internal_value=-6.56947e-07 0.000175904 -0.000153742 -0.000561782 -0.000894489 0.000909391 0.000130134 0.000120714 0.00026862 -0.0020311 -0.00234259 0.000698424 -0.000106827 -0.000168194 -0.000127249 0.00154203 0.00231408 -0.000265934 -0.000537686 -0.000737302 -0.000228119 0.00154816 -0.000867883 -0.000998484 0.00441063 0.00581797 -0.000353878 0.00119646 7.50614e-05 0.00066996
internal_weight=371876 172681 199195 20530 9655 10136 162545 160509 37832 1169 1047 6605 178665 103559 95001 2777 854 10875 4879 8486 43138 1099 6863 5638 152 96 19247 1923 122677 7359
internal_count=371876 172681 199195 20530 9655 10136 162545 160509 37832 1169 1047 6605 178665 103559 95001 2777 854 10875 4879 8486 43138 1099 6863 5638 152 96 19247 1923 122677 7359
is_linear=0
shrinkage=0.05


Tree=5
num_leaves=31
num_cat=0
split_feature=39 39 7 7 39 15 23 14 31 31 22 5 1 21 13 7 7 39 19 30 30 30 35 5 19 41 39 7 30 1
split_gain=4.64816 1.43485 1.9452 1.4319 1.14622 0.723719 0.59721 0.50289 0.479947 0.363518 0.334695 0.267526 0.266867 0.263299 0.251111 0.252976 0.23773 0.486862 0.231345 0.220109 0.216799 0.21004 0.268036 0.20663 0.20329 0.241757 0.178928 0.18743 0.17189 0.165598
threshold=0.49999928463210402 0.99999999823038455 0.083678376731292775 0.048562893878217127 1.0000000180025095e-35 0.038901986493859994 0.16094697495873797 -0.83530186778268611 0.12600413161633636 0.05195626271429362 0.92941590630483828 0.17831129995039754 0.1870395158675231 -0.23076924472253729 0.013770706965244966 0.083678376731292775 0.022870958911061896 1.0000000180025095e-35 -2.8982336938684901 -0.78422071132335558 -0.25089294082119312 -0.32811767004876818 0.26247764636797993 -0.15254235447005246 -1.0427968055821479 0.058139763757051259 0.59740167244323528 0.054482654148011227 -0.1335796942213244 1.0000000180025095e-35
decision_type=2 2 2 2 2 2 2 2 2 2 2 2 2 2 2 2 2 2 2 2 2 2 2 2 2 2 2 2 2 2
left_child=3 9 5 16 8 -3 10 -8 14 28 11 -4 29 24 15 -5 -1 -18 -17 26 -7 -9 -23 -20 -10 -26 -11 -28 -2 -6
right_child=1 2 6 4 12 20 7 21 13 19 -12 -13 -14 -15 -16 18 17 -19 23 -21 -22 22 -24 -25 25 -27 27 -29 -30 -31
leaf_value=6.7810739498706861e-05 -0.00012317774356078239 -0.00024908344101258841 -0.0018583273954502835 0.00077761971380830956 0.00058830701993574592 -0.00096014156691145904 -0.0013832591234254621 -0.011836836637458069 0.0018465546577819906 -0.00013595020660811462 -0.00052503793279210854 -0.0040829504009134579 0.00086335262104739066 0.0018826677353696395 -0.00060495975923072166 -0.00011718915296426566 0.00042505905730871651 0.00010390200630621149 0.002920615921056005 -0.00022149317594412108 -0.00044557901859201528 -0.0020121382421394622 -0.0099951410679349692 0.001390966962845604 0.0098322566597905149 0.0033963766449494311 -0.00046944039242912701 -0.0013009017054968857 1.245312625943206e-06 0.00017322841308186859
leaf_weight=108184 69906 30147 1309 5731 2843 5454 50 26 41 1233 451 156 1869 349 266 206 16322 42846 270 14418 3352 25 21 1457 31 34 1457 1312 45908 16109
leaf_count=108184 69906 30147 1309 5731 2843 5454 50 26 41 1233 451 156 1869 349 266 206 16322 42846 270 14418 3352 25 21 1457 31 34 1457 1312 45908 16109
internal_value=1.43247e-06 -0.0001858 -0.000444756 0.00016837 0.000491463 -0.000365811 -0.00195112 -0.00536155 0.000985302 -0.000106685 -0.00173108 -0.00209889 0.000292341 0.00257028 0.000893699 0.000946373 0.000111954 0.000192581 0.00144405 -0.000313087 -0.000764849 -0.00804915 -0.00577879 0.00163316 0.00478316 0.00655299 -0.000641807 -0.00086524 -7.3814e-05 0.000235761
internal_weight=371783 175225 40991 196558 29206 38953 2038 122 8385 134234 1916 1465 20821 455 7930 7664 167352 59168 1933 18420 8806 72 46 1727 106 65 4002 2769 115814 18952
internal_count=371783 175225 40991 196558 29206 38953 2038 122 8385 134234 1916 1465 20821 455 7930 7664 167352 59168 1933 18420 8806 72 46 1727 106 65 4002 2769 115814 18952
is_linear=0
shrinkage=0.05


Tree=6
num_leaves=31
num_cat=0
split_feature=39 18 5 39 23 23 30 2 39 18 39 36 7 39 19 2 24 23 7 30 38 2 19 9 1 1 14 22 11 39
split_gain=4.23539 1.67214 1.54372 0.968503 0.9349 0.726301 0.447042 0.421418 0.415971 0.412391 0.372541 0.367382 0.324571 0.296582 0.319762 0.278382 0.251422 0.248626 0.24179 0.285718 0.215031 0.222724 0.256133 0.222741 0.213705 0.198695 0.387164 0.194717 0.185924 0.176818
threshold=0.64285543963608183 0.05818074085163482 -0.04221068276311455 0.99999999823038455 0.082583883127836849 0.16094697495873797 -0.62583383080691934 -0.049402790035557503 1.0000000180025095e-35 0.028170700941745095 0.25123161386514753 0.084386672719813607 0.022700339761244189 1.0000000180025095e-35 0.69788741925328401 -0.078456204217026329 -0.076923104213897628 0.13593700127597366 0.10777808998950608 3.4926330511948689 0.22435714851359226 0.15838741691296696 0.947754719252487 0.066345541941697367 0.1870395158675231 0.14919108680522228 3.6451095271858795 -0.66825517999171957 1.3458752778648442 0.99999999680280272
decision_type=2 2 2 2 2 2 2 2 2 2 2 2 2 2 2 2 2 2 2 2 2 2 2 2 2 2 2 2 2 2
left_child=2 6 4 17 8 18 9 -4 15 -2 12 -7 -9 14 25 -1 -13 27 -5 28 21 -19 23 -23 -18 -6 -27 -3 -20 -11
right_child=1 3 7 5 13 11 -8 10 -10 29 -12 16 -14 -15 -16 -17 24 20 19 -21 -22 22 -24 -25 -26 26 -28 -29 -30 -31
leaf_value=0.0013521890719460671 -0.00018577173035657293 -0.00081295915057317278 0.00044722875361519454 -0.0010269624126348783 0.0016548589634483681 -0.0020785067993368297 -9.1841834270902175e-05 7.4281600039188952e-05 0.0001928265912910339 -0.00035953379165902066 -1.6724440298738585e-06 -0.0018977364793938785 0.00026747806272946873 0.00080138808106489958 0.00015604392716080654 0.00051581554607558588 -0.0062633333294211755 -0.0013569679875531143 -0.0018026098803327129 0.00067490056782253463 0.00049879283850697671 -0.0035786642683892146 0 -0.0099130754826743626 -0.01303630520311577 0.0036172779082341761 -0.0022349341903995733 -0.00025918112112179454 -0.0036027696188718826 -0.00071990424959780938
leaf_weight=1146 27983 2084 7493 3603 1094 74 72999 72395 14990 7806 103444 20 31142 2228 292 8086 39 332 636 91 104 46 29 23 21 304 30 6889 197 6163
leaf_count=1146 27983 2084 7493 3603 1094 74 72999 72395 14990 7806 103444 20 31142 2228 292 8086 39 332 636 91 104 46 29 23 21 304 30 6889 197 6163
internal_value=1.358e-06 -0.000229956 0.000124488 -0.000742179 0.00047251 -0.00133145 -0.00016669 7.87535e-05 0.000355922 -0.000296812 6.53898e-05 -0.00471852 0.00013244 0.00118651 0.0016824 0.000620193 -0.00709247 -0.000451502 -0.00121502 -0.00194271 -0.00150282 -0.00199856 -0.00411757 -0.00577378 -0.00873481 0.00199098 0.00307615 -0.000388362 -0.00223472 -0.000518888
internal_weight=371783 129139 242644 14188 28170 4681 114951 214474 24222 41952 206981 154 103537 3948 1720 9232 80 9507 4527 924 534 430 98 69 60 1428 334 8973 833 13969
internal_count=371783 129139 242644 14188 28170 4681 114951 214474 24222 41952 206981 154 103537 3948 1720 9232 80 9507 4527 924 534 430 98 69 60 1428 334 8973 833 13969
is_linear=0
shrinkage=0.05


Tree=7
num_leaves=31
num_cat=0
split_feature=39 0 39 10 15 26 10 14 10 39 15 22 0 28 2 30 31 13 30 26 39 40 38 15 8 40 38 27 30 14
split_gain=3.82902 1.66987 1.277 1.60006 0.606792 0.490063 0.47207 0.434705 0.342592 0.547417 0.329191 0.291103 0.291656 0.28143 0.260633 0.276003 0.241221 0.292571 0.228044 0.222668 0.213463 0.18837 0.23358 0.28555 0.236557 0.218614 0.221027 0.202394 0.187852 0.186337
threshold=0.44444444440493863 -0.064538507836801581 0.99999999823038455 0.083678376731292775 0.036812699947747475 0.16094697495873797 0.093222291315360847 -0.83530186778268611 0.025320592408493527 1.0000000180025095e-35 0.044787667054266074 0.92941590630483828 0.19671045996844044 0.17557712484748747 0.096901151483028983 0.21648362985342418 0.053076986999992401 0.048108719986599505 -0.88929378637821788 0.11922283411889183 1.0000000180025095e-35 0.028273020326377275 -0.18888886570930566 0.11570688232309569 -0.14999999503294845 0.047620128865241411 -0.35660256410256402 -2.6287512881667143 -0.5526304682953268 -0.016383990684169136
decision_type=2 2 2 2 2 2 2 2 2 2 2 2 2 2 2 2 2 2 2 2 2 2 2 2 2 2 2 2 2 2
left_child=1 6 10 4 -4 11 20 -7 -3 16 -2 12 -5 29 18 -16 -10 19 -12 -18 -1 22 23 -8 27 26 -23 -25 -6 -9
right_child=2 8 3 5 28 7 21 13 9 -11 14 -13 -14 -15 15 -17 17 -19 -20 -21 -22 25 -24 24 -26 -27 -28 -29 -30 -31
leaf_value=0.00082474199077922053 -5.15164258663943e-05 6.9088829373195948e-05 -0.00021746722509909753 -0.001650183002313943 -0.00088762576356489302 -0.0011574849863713254 0.0017255064500550075 -0.008288561422877384 0.00034500278928549467 0.00012492830883338696 -0.0005699119256061631 -0.00044607626778832136 -0.0038703020668022 -0.012580406684335785 -0.001067353092279643 -0.00023352870171693282 0.00072740685359034738 -0.0017676653391697353 -0.00012043149831406609 0.0020037325208971629 0.00036049828649859856 -0.0054853599814164815 0.0013782549711531845 0.0020215647373885955 0.00046537919278958392 0.001193810871714484 0.00022502220859179083 0.0082386219169521338 -0.00045002941896000472 -0.0019738754692890633
leaf_weight=4505 116864 110390 29002 1293 5001 50 120 26 12434 45049 3255 451 172 20 1832 2208 3974 109 21714 380 5630 24 419 20 21 1734 52 58 4950 26
leaf_count=4505 116864 110390 29002 1293 5001 50 120 26 12434 45049 3255 451 172 20 1832 2208 3974 109 21714 380 5630 24 419 20 21 1734 52 58 4950 26
internal_value=1.2842e-06 0.0001626 -0.000158326 -0.000404933 -0.000333319 -0.00177119 0.000718732 -0.00486246 0.000121965 0.000216111 -8.89935e-05 -0.0015715 -0.0019145 -0.00736083 -0.000239798 -0.000612894 0.000458916 0.000775146 -0.000179229 0.000839991 0.000567354 0.00134336 0.00209055 0.00342926 0.00544013 0.00107713 -0.00151739 0.00671315 -0.000670458 -0.00523704
internal_weight=371783 184919 186864 40991 38953 2038 12583 122 172336 61946 145873 1916 1465 72 29009 4040 16897 4463 24969 4354 10135 2448 638 219 99 1810 76 78 9951 52
internal_count=371783 184919 186864 40991 38953 2038 12583 122 172336 61946 145873 1916 1465 72 29009 4040 16897 4463 24969 4354 10135 2448 638 219 99 1810 76 78 9951 52
is_linear=0
shrinkage=0.05


Tree=8
num_leaves=31
num_cat=0
split_feature=39 0 15 39 0 31 39 7 0 30 0 2 31 22 22 1 30 38 31 40 22 2 19 36 23 39 7 39 2 22
split_gain=3.50165 1.73185 1.3948 0.771967 0.644762 0.521911 0.482756 0.501615 0.39891 0.388086 0.471189 0.274438 0.273523 0.23883 0.218558 0.215528 0.241952 0.20988 0.259629 0.200981 0.186281 0.185157 0.180039 0.179582 0.17887 0.178708 0.1771 0.256709 0.174494 0.17131
threshold=0.65217375508696473 -0.061718136638944786 0.05818074085163482 0.99999999823038455 0.19671045996844044 0.14976328000031755 0.25123161386514753 0.043425773698847085 -0.18232154943535656 -0.62583383080691934 0.046734013158371099 0.073457870628319669 0.12600413161633636 -0.72810202614369735 0.18565060953542681 0.27648295881231816 -0.65952565882695835 0.0071419476065250577 0.10472964902667549 0.81818174716927194 3.3472280366006824 0.0087718963623047829 1.20435109853705 0.108358404000129 0.027212821849578562 1.0000000180025095e-35 0.12388043833834655 0.22018324541178708 0.11111114723513947 3.3472280366006824
decision_type=2 2 2 2 2 2 2 2 2 2 2 2 2 2 2 2 2 2 2 2 2 2 2 2 2 2 2 2 2 2
left_child=1 8 9 15 14 11 7 19 20 10 24 -6 -9 -10 -5 16 28 18 -17 -3 21 -1 -19 -22 -2 -15 -14 -28 -4 -13
right_child=2 6 3 4 5 -7 -8 12 13 -11 -12 29 26 25 -16 17 -18 22 -20 -21 23 -23 -24 -25 -26 -27 27 -29 -30 -31
leaf_value=0.0022375475907928056 -0.00015100844282993261 0.00012249203616036361 -0.00069651885068567742 -0.001242434174388602 -0.0049034806948618191 -0.008210131618317516 2.2381974053987647e-06 0.00038305934822085508 0.0010594322604078686 -8.3120659680899062e-05 -0.00095602319468815933 -0.0024208445651305206 0.00068439497327584323 0.00074205724902839552 -0.00042212994364981566 -0.0013673546405563813 -0.00023102054757444059 -0.0023750308809868583 -0.0060809945537405249 -0.00025039272166675039 0.00083173191509657018 -3.0555071616770989e-06 0.0016746809093718237 -0.0035960619187583604 -0.00037349190199506961 0.00032901939739952979 0.002050492192362694 0.0077526708013575633 -0.002308243559063664 0.00041903515153796371
leaf_weight=703 24497 101879 2011 3175 88 46 110034 14102 2077 71540 2402 182 244 4080 1119 77 6831 53 51 3738 237 101 56 25 14431 7534 189 23 187 71
leaf_count=703 24497 101879 2011 3175 88 46 110034 14102 2077 71540 2402 182 244 4080 1119 77 6831 53 51 3738 237 101 56 25 14431 7534 189 23 187 71
internal_value=1.21701e-06 0.000111638 -0.000212037 -0.000683861 -0.00120779 -0.0031685 7.7953e-05 0.000147237 0.000636774 -0.000153691 -0.000275722 -0.00247153 0.000422503 0.000563657 -0.00102985 -0.000418633 -0.00037886 -0.00191196 -0.00328776 0.000109247 0.00157101 0.0019499 -0.000248988 0.000388945 -0.000233614 0.000474555 0.00163099 0.00269606 -0.000836014 -0.00160428
internal_weight=371783 244966 126817 13947 4681 387 230209 120175 14757 112870 41330 341 14558 13691 4294 9266 9029 237 128 105617 1066 804 109 262 38928 11614 456 212 2198 253
internal_count=371783 244966 126817 13947 4681 387 230209 120175 14757 112870 41330 341 14558 13691 4294 9266 9029 237 128 105617 1066 804 109 262 38928 11614 456 212 2198 253
is_linear=0
shrinkage=0.05


Tree=9
num_leaves=31
num_cat=0
split_feature=39 0 15 39 0 28 39 7 0 30 0 40 23 39 37 14 6 40 39 30 5 22 40 7 2 0 31 30 30 14
split_gain=3.16284 1.5623 1.27034 0.671447 0.599935 0.5023 0.450756 0.453214 0.361442 0.348162 0.387305 0.294783 0.249286 0.237636 0.201547 0.195621 0.190008 0.185846 0.20814 0.184428 0.180838 0.179165 0.174623 0.166936 0.16326 0.156934 0.155305 0.152329 0.148407 0.146044
threshold=0.66666625898519583 -0.061718136638944786 0.05663449233030874 0.99999999823038455 0.19671045996844044 0.17557712484748747 0.25123161386514753 0.038246823441753827 -0.12136080965074704 -0.62583383080691934 0.034358261916831764 0.99999999984003463 0.16094697495873797 0.22018324541178708 0.079652559772055195 -0.44439367168301541 -0.51502439081591955 0.71722621669574538 1.0000000180025095e-35 -0.65952565882695835 -0.15254235447005246 0.18565060953542681 0.81818174716927194 0.068898253089966555 0.11111114723513947 0.058162611937322993 0.08833489733914511 -0.12474388778001717 1.9414195028531991 1.2346533414145677
decision_type=2 2 2 2 2 2 2 2 2 2 2 2 2 2 2 2 2 2 2 2 2 2 2 2 2 2 2 2 2 2
left_child=1 8 9 19 21 11 7 22 16 10 -2 14 17 27 29 -10 20 18 -9 24 -1 23 -3 -5 -4 -8 -19 -14 -27 -6
right_child=2 6 3 4 5 -7 25 12 15 -11 -12 -13 13 -15 -16 -17 -18 26 -20 -21 -22 -23 -24 -25 -26 28 -28 -29 -30 -31
leaf_value=0.0039852059823890255 -0.00021188522833697813 0.00011046259831732099 -0.00065889479534541359 -0.00075631964069207446 -0.0040101690874963496 -0.010590490397017326 1.0936212020400394e-05 0.00056065085234879907 0.0008083374981391584 -7.8538075599765623e-05 -0.00072945263940959548 -0.00054117612655927465 0.0022127349059805003 0.0061300581464222154 -0.0078618396298381788 0.00034404152778943727 0.00089066834426201891 -0.0004052907024788051 0.00021975030078569093 -0.00027556031482393076 0.0015020348814881446 -0.00042501193182862824 -0.00023855762196497589 -0.0014692469594005943 -0.0021822055682395327 -0.00051489796628811577 -0.0037853984739375361 -0.00050178587506111161 0.00032900844338791573 -0.0011630652889363796
leaf_weight=91 35932 97355 2096 1570 140 21 110137 7782 3148 68868 4031 125 157 30 26 8409 2664 307 10720 7356 476 1211 3712 1824 196 2566 39 73 646 75
leaf_count=91 35932 97355 2096 1570 140 21 110137 7782 3148 68868 4031 125 157 30 26 8409 2664 307 10720 7356 476 1211 3712 1824 196 2566 39 73 646 75
internal_value=1.15189e-06 0.000104002 -0.000205648 -0.000643021 -0.00111432 -0.00301092 7.24169e-05 0.000139882 0.000602431 -0.000146766 -0.000264218 -0.00255959 0.000363289 0.00190486 -0.00358509 0.000470949 0.00107115 0.000341749 0.000363407 -0.000398637 0.00191002 -0.000953787 9.7594e-05 -0.00114097 -0.000791431 8.44959e-07 -0.000801716 0.0013296 -0.000343609 -0.00304124
internal_weight=371783 248312 123471 14640 4992 387 233524 120175 14788 108831 39963 366 19108 260 241 11557 3231 18848 18502 9648 567 4605 101067 3394 2292 113349 346 230 3212 215
internal_count=371783 248312 123471 14640 4992 387 233524 120175 14788 108831 39963 366 19108 260 241 11557 3231 18848 18502 9648 567 4605 101067 3394 2292 113349 346 230 3212 215
is_linear=0
shrinkage=0.05


Tree=10
num_leaves=31
num_cat=0
split_feature=5 0 10 2 22 0 1 5 15 10 22 21 31 21 5 0 23 15 37 37 11 37 2 0 35 38 14 3 35 13
split_gain=2.35216 1.50528 0.929065 0.592008 0.513438 0.41764 0.341703 0.524822 0.302499 0.255655 0.316664 0.247446 0.249394 0.237124 0.231391 0.224391 0.224376 0.212078 0.238773 0.363985 0.227426 0.20569 0.223166 0.194369 0.188153 0.196342 0.187116 0.185175 0.242921 0.179117
threshold=-0.00014495547599370352 -0.12136080965074704 0.058787408285234925 -0.078456204217026329 -0.52015625533033993 0.086791803322480737 1.0000000180025095e-35 -0.030096689084450508 0.095850829412302732 0.025534059105140634 -0.54097448515377533 -0.23076924472253729 0.11309168527456447 -0.03119499975909364 -0.15254235447005246 0.04196420251649511 0.10966982513093466 0.17506146937844538 -0.13355242138452209 0.13634903096241766 0.3248759633697193 0.045348828112260445 0.063058358750454249 -0.04793693767151385 -0.15638430997099415 -0.1993480428361166 1.1000758725341429 0.069549445347690711 -2.7555102448563451 -0.0076844255354036181
decision_type=2 2 2 2 2 2 2 2 2 2 2 2 2 2 2 2 2 2 2 2 2 2 2 2 2 2 2 2 2 2
left_child=1 8 9 27 5 29 7 11 26 -2 15 12 -5 -7 -10 -11 -15 21 -19 -20 -21 22 -6 -8 -18 -26 -1 28 -3 -4
right_child=2 3 4 6 17 13 23 -9 14 10 -12 -13 -14 16 -16 -17 24 18 19 20 -22 -23 -24 -25 25 -27 -28 -29 -30 -31
leaf_value=0.0012695434970204941 -3.7042315641842797e-05 -0.0043126248302646115 -4.3621212928028909e-05 0.0011764427130035006 -0.00014132862939626644 0 0.00024323904971588518 0.00013960114326819946 0.0027661876247118155 -0.00024730925328795785 -7.7712453504357308e-05 0.00055629840744972705 0.0054476116634467929 -0.0015307676806400625 0.001285148293869665 -0.00069216314605333737 -0.00074605964897674027 0.00081406660499369068 -0.0036558293747043116 -0.0030105059404502274 0.0013594721725432954 5.448639214509246e-05 -0.00067604148602936915 4.0441208859166955e-05 -0.008848976450487633 -0.0035068742218159359 0.00028297866727441815 0.0010822154812031772 0.00044346757745837047 -0.0007284398332598203
leaf_weight=1130 117262 27 1202 117 4755 199 13190 31767 450 18292 38534 7565 51 877 690 3377 53 90 165 45 87 4617 3346 114737 22 125 863 1924 1742 4960
leaf_count=1130 117262 27 1202 117 4755 199 13190 31767 450 18292 38534 7565 51 877 690 3377 53 90 165 45 87 4617 3346 114737 22 125 863 1924 1742 4960
internal_value=9.08922e-07 0.000134899 -0.000116981 0.000114982 -0.000435364 -0.000767478 0.000101135 0.000229729 0.00122112 -8.00977e-05 -0.000163877 0.000599318 0.00250526 -0.00159314 0.00187435 -0.000316871 -0.00188611 -0.000246481 -0.00140169 -0.00209001 -9.35942e-05 -0.000210925 -0.000362807 6.13901e-05 -0.00341773 -0.00434584 0.00084489 0.000741378 0.00036781 -0.000595669
internal_weight=372261 174253 198008 171120 20543 7438 167427 39500 3133 177465 60203 7733 168 1276 1140 21669 1077 13105 387 297 132 12718 8101 127927 200 147 1993 3693 1769 6162
internal_count=372261 174253 198008 171120 20543 7438 167427 39500 3133 177465 60203 7733 168 1276 1140 21669 1077 13105 387 297 132 12718 8101 127927 200 147 1993 3693 1769 6162
is_linear=0
shrinkage=0.05


Tree=11
num_leaves=31
num_cat=0
split_feature=39 0 18 23 0 39 7 39 7 39 14 32 31 5 14 31 21 20 13 21 40 11 0 19 32 41 30 0 8 23
split_gain=2.62624 1.53083 1.02144 0.51534 0.462002 0.432676 0.527819 0.351566 0.412978 0.333988 0.258776 0.236023 0.38526 0.23227 0.222878 0.208399 0.255466 0.301922 0.206348 0.201266 0.187359 0.185745 0.16978 0.168192 0.265834 0.171992 0.152151 0.171933 0.148853 0.240546
threshold=0.64285543963608183 -0.086074644883211968 0.066440354993712758 0.11922283411889183 -0.18232154943535656 0.2010873959401013 0.039271246618274615 0.99999999680280272 0.025534059105140634 0.99999999680280272 0.16282911163866293 0.43822552151119215 0.10472964902667549 -0.11988389411386673 -0.44439367168301541 0.066586924399171674 0.079742553176780931 0.033124420775553887 0.090342676698212263 -0.0023288989161766795 0.33333333330372966 -2.2360679774997765 -0.024524262394722034 -0.14746795499644894 -0.11016949914509237 0.66666666658722962 -0.44983508733058436 0.046734013158371099 -0.17370020860668392 0.10966982513093466
decision_type=2 2 2 2 2 2 2 2 2 2 2 2 2 2 2 2 2 2 2 2 2 2 2 2 2 2 2 2 2 2
left_child=1 4 7 9 10 6 19 26 -9 -4 13 12 -5 21 -6 -8 -17 -18 -14 -3 -11 -1 -7 -20 25 -25 27 -2 29 -12
right_child=2 5 3 11 14 22 15 8 -10 20 28 -13 18 -15 -16 16 17 -19 23 -21 -22 -23 -24 24 -26 -27 -28 -29 -30 -31
leaf_value=0 -0.00013633339960485949 0.00014628261259505646 -0.00030799025888558453 -0.00051759518236882158 0.001139076952837289 0.00015255215760712855 0.00030562489399035798 -0.00013289407872873601 -0.00046811509718312902 0.00055446139789083325 0.00098009025765588131 -0.00039392774217733958 -0.0016459165911087382 0.001200462009636423 0.00046346704189313139 0.0008356414649405363 -0.0049979449313171361 -7.1383407350317856e-05 -0.0018587478737586895 -1.5598144304430674e-05 -0.001067941774545374 0.004310372209014742 -1.2682204084228436e-05 -0.0034804710936109078 -0.005854651976175386 0.00097531168132849132 -2.2264025338843608e-05 -0.00066728352897557804 0.00012199642889951137 0.0036304590033272677
leaf_weight=31 32099 65771 5835 308 1665 18193 14106 23493 15152 186 330 313 287 149 4778 3582 36 241 119 27042 2754 209 106661 94 128 26 46711 1607 235 120
leaf_count=31 32099 65771 5835 308 1665 18193 14106 23493 15152 186 330 313 287 149 4778 3582 36 241 119 27042 2754 209 106661 94 128 26 46711 1607 235 120
internal_value=8.62453e-07 9.76503e-05 -0.000181374 -0.000665561 0.000800126 7.52187e-05 0.000147152 -0.000140461 -0.000264458 -0.00052822 0.00176283 -0.00160675 -0.00199608 0.00280194 0.000638849 0.000395316 0.000721856 -0.000731275 -0.00268454 9.90632e-05 -0.000963584 0.00377445 1.13548e-05 -0.00348247 -0.00424038 -0.00247341 -8.08105e-05 -0.000161798 0.00116513 0.00169861
internal_weight=372261 243149 129112 10050 7517 235632 110778 119062 38645 8775 1074 1275 962 389 6443 17965 3859 277 654 92813 2940 240 124854 367 248 120 80417 33706 685 450
internal_count=372261 243149 129112 10050 7517 235632 110778 119062 38645 8775 1074 1275 962 389 6443 17965 3859 277 654 92813 2940 240 124854 367 248 120 80417 33706 685 450
is_linear=0
shrinkage=0.05


Tree=12
num_leaves=31
num_cat=0
split_feature=39 2 15 39 23 39 7 39 31 7 19 30 30 41 7 1 40 31 33 29 4 40 7 15 40 3 22 5 31 35
split_gain=2.37067 1.21427 0.926851 0.623239 0.420301 0.403176 0.679834 0.313609 0.300126 0.283588 0.238432 0.230363 0.207629 0.187243 0.184615 0.184005 0.178292 0.177785 0.170386 0.168772 0.211621 0.153444 0.169012 0.15043 0.149431 0.147992 0.146805 0.15887 0.200367 0.508974
threshold=0.64285543963608183 -0.07407406697244294 0.044787667054266074 0.99999999680280272 0.097035208301275114 0.25123161386514753 0.052995610149203433 1.0000000180025095e-35 0.12600413161633636 0.10777808998950608 0.15441189433613031 -0.6736272793331558 -0.76672236646328817 0.40000013959232134 0.018627540279918479 0.0027479035280470842 0.81818174716927194 0.14976328000031755 -0.016688265666212388 -0.30704481126355804 0.83297249830751918 0.63636294650626624 0.093222291315360847 0.033620862193500765 1.0000000180025095e-35 0.089909859021518976 -0.59220318688403784 -0.062583591410691475 0.14976328000031755 0.029198534834798052
decision_type=2 2 2 2 2 2 2 2 2 2 2 2 2 2 2 2 2 2 2 2 2 2 2 2 2 2 2 2 2 2
left_child=1 7 11 12 -5 6 16 9 15 -1 -6 14 -4 26 -2 18 23 -12 -8 20 -11 -20 -23 -3 -25 -19 27 28 -10 -30
right_child=2 5 3 4 10 -7 8 -9 13 19 17 -13 -14 -15 -16 -17 -18 25 21 -21 -22 22 -24 24 -26 -27 -28 -29 29 -31
leaf_value=0.0010115997154906708 -0.00010444337518138527 7.7397133832938402e-05 -0.00064545628935890617 -0.00065728403717318538 -0.0010084073456538703 3.0055957949401361e-06 0.0044623482517551546 0.00050466968857302468 0.0020413605929984367 0.0026705007125171253 -0.0021161825982300253 -5.1742611451687026e-05 -0.00018937441847141447 0.00027319557908914366 -0.00033550432556493951 0.00027723736071234785 -0.00023927869754712932 -0.0023477439877896853 0.0007142713824391146 0.0017449683761581456 0.0077764560474122228 -4.4790734003338879e-05 -0.0042954998114116292 0.00047971113203676196 0.00015797550763510328 -0.007210675896070589 0.0010524154878471536 0.0011816582179417765 0.011204857516976209 0.0024346974911708427
leaf_weight=2037 19106 87261 3039 7315 578 109463 30 4834 64 66 434 68285 14364 173 15920 7343 3827 35 4355 169 33 132 29 4515 18527 36 147 72 29 43
leaf_count=2037 19106 87261 3039 7315 578 109463 30 4834 64 66 434 68285 14364 173 15920 7343 3827 35 4355 169 33 132 29 4515 18527 36 147 72 29 43
internal_value=8.16545e-07 9.27751e-05 -0.000172325 -0.000440454 -0.000794514 7.33182e-05 0.000134099 0.000735296 0.000485544 0.00121675 -0.00171665 -0.000105313 -0.000269308 0.00165527 -0.000209608 0.000433162 9.58186e-05 -0.00251702 0.00068391 0.00275642 0.00442907 0.000657604 -0.000843674 0.00010749 0.000221237 -0.00489045 0.00231444 0.00318138 0.00420168 0.00604711
internal_weight=372261 243149 129112 25801 8398 236010 126547 7139 12417 2305 1083 103311 17403 528 35026 11889 114130 505 4546 268 99 4516 161 110303 23042 71 355 208 136 72
internal_count=372261 243149 129112 25801 8398 236010 126547 7139 12417 2305 1083 103311 17403 528 35026 11889 114130 505 4546 268 99 4516 161 110303 23042 71 355 208 136 72
is_linear=0
shrinkage=0.05


Tree=13
num_leaves=31
num_cat=0
split_feature=39 0 18 39 23 2 39 7 39 7 0 4 39 29 31 13 28 7 40 23 31 40 35 36 35 3 6 41 14 12
split_gain=2.14048 1.28423 0.844027 0.432198 0.403192 0.381823 0.308872 0.338557 0.305407 0.34905 0.290066 0.31781 0.207728 0.202926 0.190791 0.200618 0.222586 0.195467 0.17651 0.174871 0.167548 0.22164 0.172687 0.176738 0.16276 0.161529 0.158861 0.156597 0.148701 0.217734
threshold=0.63636363635515159 -0.086074644883211968 0.066440354993712758 0.99999999680280272 0.082583883127836849 -0.07407406697244294 0.2010873959401013 0.022700339761244189 0.99999999680280272 0.025534059105140634 0.19671045996844044 -1.2180165744064098 0.99999999975555598 -0.26013587399960419 0.066586924399171674 0.048108719986599505 0.054551481056371622 0.064924948750748487 0.33333333330372966 0.13593700127597366 0.12600413161633636 0.08398496213961433 -3.0721094999383189 0.108358404000129 -0.22104853676088676 0.033146232993076417 -0.37498273908035856 0.21666645690442457 -0.90511833825304899 0.11427017332343749
decision_type=2 2 2 2 2 2 2 2 2 2 2 2 2 2 2 2 2 2 2 2 2 2 2 2 2 2 2 2 2 2
left_child=1 4 8 19 26 -3 7 -7 -2 -10 18 -12 -13 20 25 17 -17 -16 -5 27 22 -22 -6 -24 -23 -9 -1 -4 29 -20
right_child=2 5 3 10 13 6 -8 14 9 -11 11 12 -14 -15 15 16 -18 -19 28 -21 21 24 23 -25 -26 -27 -28 -29 -30 -31
leaf_value=0.0010285885849349219 -7.0648409918918069e-05 0.00058091009339556572 0.00050952346312154741 0.00045354052300857216 -0.00091129340889542347 5.2914885204321467e-05 5.5994539002930179e-06 9.2315771171341181e-05 -0.00012046600905100729 -0.0004286825947174464 -0.0070042844417250978 -0.0034067404237212713 -0.00090974120050627363 0.00099854986578131193 0.00030207065634392814 -0.0045580819803837901 0 0.00097409104643879883 -0.0014028783520970631 -0.0012583065413451773 0.005721423303552531 -0.0020205486737265815 0.0027290647868356433 0.00048720161957356502 0.0030137902831361158 0.00030392764291433115 0.00036597048206923752 -0.00037039987665682807 -0.00073947913770540808 -0.0067393788502584043
leaf_weight=1163 81525 3577 551 222 57 67803 122244 18402 23493 15152 34 140 225 1418 2517 39 83 1939 892 510 68 20 267 140 65 17854 4315 5619 1907 20
leaf_count=1163 81525 3577 551 222 57 67803 122244 18402 23493 15152 34 140 225 1418 2517 39 83 1939 892 510 68 20 267 140 65 17854 4315 5619 1907 20
internal_value=7.78658e-07 8.87702e-05 -0.000162598 -0.000601258 0.000732316 6.81268e-05 6.01604e-05 0.000121509 -0.000125615 -0.000241442 -0.00105736 -0.00233253 -0.00188186 0.00133478 0.000235284 0.000540059 -0.00144764 0.000595633 -0.000888329 -0.00036562 0.00209912 0.00356116 0.00160559 0.0019705 0.0017695 0.000196661 0.000507576 -0.000291003 -0.000995789 -0.00152611
internal_weight=372261 241971 130290 10120 7513 234458 230881 108637 120170 38645 3440 399 365 2035 40834 4578 122 4456 3041 6680 617 153 464 407 85 36256 5478 6170 2819 912
internal_count=372261 241971 130290 10120 7513 234458 230881 108637 120170 38645 3440 399 365 2035 40834 4578 122 4456 3041 6680 617 153 464 407 85 36256 5478 6170 2819 912
is_linear=0
shrinkage=0.05


Tree=14
num_leaves=31
num_cat=0
split_feature=39 0 39 7 7 0 4 39 12 19 34 11 30 34 9 2 30 23 21 30 13 39 3 0 7 11 2 19 3 36
split_gain=1.93591 1.09749 0.787612 0.894281 0.440922 0.400122 0.283064 0.273609 0.245634 0.309703 0.363701 0.234138 0.224858 0.217761 0.212477 0.207714 0.276747 0.191847 0.208928 0.187648 0.184719 0.183908 0.172635 0.165373 0.155381 0.153575 0.152766 0.147596 0.146218 0.184821
threshold=0.35802445874590466 -0.12136080965074704 0.99999999680280272 0.038246823441753827 0.043425773698847085 0.19671045996844044 -1.2180165744064098 1.0000000180025095e-35 0.2007856282522609 0.00069557093028979036 0.10472964902667549 -0.60876786171580644 1.3101549212442627 0.10472964902667549 -0.058511964257237092 0.033333338461981894 0.43374594576032266 0.11922283411889183 0.03757754275098308 -0.63066607462654833 0.039236512137486475 0.99999999975555598 0.056755085206427018 0.05129319901887943 0.058787408285234925 -2.1504022847352102 0.063058358750454249 0.65865329234855263 0.14881596188776511 0.03877258478584953
decision_type=2 2 2 2 2 2 2 2 2 2 2 2 2 2 2 2 2 2 2 2 2 2 2 2 2 2 2 2 2 2
left_child=1 8 14 -4 -3 12 -7 17 19 10 25 -12 13 -5 -2 23 24 -6 27 -1 -18 -8 -9 -16 -17 -10 -26 -19 -15 -30
right_child=2 4 3 5 7 6 21 22 9 -11 11 -13 -14 28 15 16 20 18 -20 -21 -22 -23 -24 -25 26 -27 -28 -29 29 -31
leaf_value=0.0017776189939392687 0.0028258074999586193 7.5692229779668999e-05 -0.00015876160491574791 -0.00066509531021841193 0.00047214157646572165 -0.0066550971956973451 -0.0032341522461904583 6.1688368000229366e-05 -0.0010484674772411812 0.00033906224897558407 0.011677227374960745 0.0045404059682696883 -5.8755099548792436e-05 -0.001186323963805093 -1.7265297187600865e-05 -0.00021373477908263766 -0.00020788985523215089 0.0025128330874481021 -0.00092388816317964112 0.00073939194292617003 0.00021312720516316361 -0.00089818358466429559 0.0003885308475182356 -0.0003641058795071464 -0.00012652835308759117 0.0035306251648502453 -0.00079949949256018975 -0.00029282258799381828 -0.0001319091425270147 -0.0043381885796781559
leaf_weight=559 64 132857 31464 8254 8585 34 143 10931 26 88 21 34 1499 328 134552 15406 4550 295 67 2160 6085 226 6452 3529 1298 52 2513 52 39 98
leaf_count=559 64 132857 31464 8254 8585 34 143 10931 26 88 21 34 1499 328 134552 15406 4550 295 67 2160 6085 226 6452 3529 1298 52 2513 52 39 98
internal_value=7.40426e-07 0.000130527 -9.94285e-05 -0.000292881 0.000112818 -0.000689725 -0.00223971 0.000299591 0.00108796 0.00270316 0.00422838 0.00737237 -0.000628083 -0.000725388 -5.09367e-05 -5.20645e-05 -0.00017169 0.000523682 0.00158002 0.000954738 3.2532e-05 -0.00181763 0.000183291 -2.61661e-05 -0.00028497 0.00194085 -0.000571612 0.00207802 -0.00178449 -0.00317822
internal_weight=372261 162179 210082 42085 159239 10621 403 26382 2940 221 133 55 10218 8719 167997 167933 29852 8999 414 2719 10635 369 17383 138081 19217 78 3811 347 465 137
internal_count=372261 162179 210082 42085 159239 10621 403 26382 2940 221 133 55 10218 8719 167997 167933 29852 8999 414 2719 10635 369 17383 138081 19217 78 3811 347 465 137
is_linear=0
shrinkage=0.05


Tree=15
num_leaves=31
num_cat=0
split_feature=39 15 2 39 7 39 39 26 31 1 35 1 7 38 22 31 22 35 35 20 35 37 38 12 14 19 9 13 1 15
split_gain=1.85132 0.86771 0.713563 0.408863 0.445145 0.402827 0.32277 0.309952 0.274478 0.403203 0.23371 0.21112 0.194263 0.208426 0.183298 0.206471 0.181313 0.162881 0.156045 0.548797 0.169457 0.165391 0.153749 0.143367 0.215372 0.178811 0.143184 0.139115 0.131735 0.128434
threshold=0.7499997787997229 0.050119858198719079 -0.057692306634237113 0.34210513927151787 0.048562893878217127 0.99999999680280272 1.0000000180025095e-35 0.088673116737821911 0.12600413161633636 0.21903635336432489 -0.062410641589171083 1.0000000180025095e-35 0.10777808998950608 -0.28149146096440869 -0.6327910367983226 0.025490732147978999 -0.46857763914027628 -0.50161990014963342 -0.11869335039404424 0.030616524204552784 -0.39483221669385421 -0.085518859348275522 -0.56947916666666665 0.13682030421629884 0.046251331772501535 -9.941341197512868e-15 -0.0031355603291385527 0.019035206298854777 0.27648295881231816 0.17506146937844538
decision_type=2 2 2 2 2 2 2 2 2 2 2 2 2 2 2 2 2 2 2 2 2 2 2 2 2 2 2 2 2 2
left_child=2 14 6 4 -4 -3 12 -7 11 18 -11 22 -1 17 15 -2 28 -14 19 -10 -21 -22 -6 -9 -25 -26 29 -24 -8 -5
right_child=1 5 3 26 8 7 16 23 9 10 -12 -13 13 -15 -16 -17 -18 -19 -20 20 21 -23 27 24 25 -27 -28 -29 -30 -31
leaf_value=0.00072474990206857024 -0.00010173089622491378 -0.00030842806091353064 6.9285391674423226e-05 -0.00011266112960505875 0.0035662302823688597 -0.00064923606072217444 0.00064701627064055352 -0.0013042801106340055 0.0095991159652305015 0.0010146056749774732 0.0078479402664877289 0.00016640593209224307 0.0084021218593333859 0.0013833859637097665 -6.9551788202604651e-05 -0.00036946232584980946 0.00015747236479992044 0.0026035444886152318 0.00039450268521484631 -0.00021790704176465766 0.0062895768696805869 0.00080469575961484197 0.00057557777941398981 -0.0044661535724589765 0.0025891856564973217 -0.0028082304821762786 8.5079268292639966e-06 -0.00040530106554244175 0.0032513689776014995 -0.0017541041651666619
leaf_weight=3240 15680 8840 131006 29569 42 5342 1725 1221 22 22 36 10937 21 241 54053 13425 7004 38 404 91 25 36 5657 94 25 38 82612 380 51 120
leaf_count=3240 15680 8840 131006 29569 42 5342 1725 1221 22 22 36 10937 21 241 54053 13425 7004 38 404 91 25 36 5657 94 25 38 82612 380 51 120
internal_value=-2.75986e-06 -0.000188359 6.42669e-05 4.66903e-05 0.000101093 -0.00053115 0.000436161 -0.000823382 0.000336874 0.00135884 0.00534825 0.000298375 0.000839885 0.00206603 -0.000124158 -0.000225398 0.000272806 0.00476277 0.000949015 0.00220682 0.0010984 0.00314105 0.000534978 -0.00149476 -0.00294252 -0.00058645 -2.52811e-05 0.000513002 0.000724797 -0.00011947
internal_weight=371997 98718 273279 260959 148658 15560 12320 6720 17652 636 58 17016 3540 300 83158 29105 8780 59 578 174 152 61 6079 1378 157 63 112301 6037 1776 29689
internal_count=371997 98718 273279 260959 148658 15560 12320 6720 17652 636 58 17016 3540 300 83158 29105 8780 59 578 174 152 61 6079 1378 157 63 112301 6037 1776 29689
is_linear=0
shrinkage=0.05


Tree=16
num_leaves=31
num_cat=0
split_feature=39 0 18 30 6 39 0 23 40 30 31 39 2 1 11 31 38 13 7 1 19 39 28 1 3 7 2 8 23 35
split_gain=1.67121 0.882493 0.783252 0.438468 0.376971 0.307116 0.287863 0.260476 0.305346 0.20625 0.210322 0.194049 0.245327 0.204738 0.220656 0.190861 0.251797 0.186762 0.162072 0.161563 0.160437 0.154571 0.22319 0.14714 0.139303 0.21111 0.138548 0.150785 0.140504 0.137404
threshold=0.7499997787997229 -0.061718136638944786 0.050119858198719079 -0.60221526914575285 -0.56987397227834136 0.34782611396707047 0.19671045996844044 0.07222530626244536 0.40259733821854687 -0.65008304385801952 0.027053350217517213 1.0000000180025095e-35 -0.11990561966086238 0.27648295881231816 -1.7842578904650062 0.14976328000031755 0.16684040563732597 -0.20650702640378166 0.049663709072445793 0.012212137106994904 0.074856627333284284 0.99999999680280272 0.17557712484748747 0.10598293601478163 0.026315793818679583 0.022700339761244189 0.027027030820128948 0.083333384742341102 0.035896451416727711 -0.39483221669385421
decision_type=2 2 2 2 2 2 2 2 2 2 2 2 2 2 2 2 2 2 2 2 2 2 2 2 2 2 2 2 2 2
left_child=1 4 9 6 17 7 18 24 15 10 -2 12 13 -6 -15 19 29 -1 -4 -9 -16 -5 23 -23 -3 -26 -7 28 -28 -17
right_child=2 5 3 21 11 26 -8 8 -10 -11 -12 -13 -14 14 20 16 -18 -19 -20 -21 -22 22 -24 -25 25 -27 27 -29 -30 -31
leaf_value=0.0035009343178035689 -0.00010738450042804392 1.3099836437814811e-05 -0.00039107775586257033 -0.00016804039405110151 0.0011019041135210612 2.3451341414174152e-06 -0.0035013043672072449 0.00093770775984341461 -7.9406382628285344e-05 -5.7928049757342105e-05 -0.00037334634763331936 0.00016576592477198358 0.00045186783466704371 0.00010247144868417505 0.0072570155215982771 -0.00029952540111614348 0.0068028608257270076 0.00091000288930184888 -0.0010002999148334927 0.00028964329656986894 0.0019342769822284179 -0.0003019637582857921 -0.004624603000193659 -0.00099362078034787612 5.8829211381691666e-05 0.00022978406135120536 -6.516459640114085e-05 0.00023756495909301866 -0.00035496161182231741 0.002300533974080345
leaf_weight=73 17418 57915 1595 6659 374 92213 103 1666 2196 52677 13063 7721 4095 32 42 72 25 2513 3692 2351 26 2295 34 1182 55783 26789 9314 2260 7669 150
leaf_count=73 17418 57915 1595 6659 374 92213 103 1666 2196 52677 13063 7721 4095 32 42 72 25 2513 3692 2351 26 2295 34 1182 55783 26789 9314 2260 7669 150
internal_value=-2.61599e-06 6.10662e-05 -0.000178957 -0.000504643 0.000435578 3.94865e-05 -0.000869743 8.69663e-05 0.000397575 -0.000117956 -0.000221531 0.000319514 0.000578223 0.00165897 0.00368925 0.000644394 0.00200108 0.000985208 -0.000817464 0.000559681 0.0053011 -0.000310645 -0.000579674 -0.000538551 7.26477e-05 0.000114353 -2.30675e-05 -0.000145105 -0.000196324 0.001435
internal_weight=371997 273279 98718 15560 14876 258403 5390 146947 6460 83158 30481 12290 4569 474 100 4264 247 2586 5287 4017 68 10170 3511 3477 140487 82572 111456 19243 16983 222
internal_count=371997 273279 98718 15560 14876 258403 5390 146947 6460 83158 30481 12290 4569 474 100 4264 247 2586 5287 4017 68 10170 3511 3477 140487 82572 111456 19243 16983 222
is_linear=0
shrinkage=0.05


Tree=17
num_leaves=31
num_cat=0
split_feature=39 23 2 39 23 5 31 39 39 7 41 30 30 5 28 1 20 37 7 6 30 11 1 30 1 13 31 24 3 11
split_gain=1.50978 0.670041 0.582675 0.463579 0.289781 0.28406 0.283996 0.264019 0.223106 0.25322 0.209256 0.220457 0.187165 0.174094 0.168471 0.165619 0.166647 0.167119 0.158909 0.150932 0.148082 0.146986 0.142327 0.133128 0.183269 0.12025 0.119596 0.119101 0.163598 0.141511
threshold=0.66666625898519583 0.048359826267292294 -0.057692306634237113 0.99999999680280272 0.11922283411889183 -0.10387019944629906 0.14976328000031755 1.0000000180025095e-35 0.34210513927151787 0.043425773698847085 0.18115940525678584 -0.73836448711863978 -0.65008304385801952 0.0218392608249183 0.03659188419129112 0.00085949553347540897 0.012520899976741903 0.12700385997753869 0.10777808998950608 -0.56987397227834136 -0.64504523800711799 -0.86459382111724903 0.00085949553347540897 -0.17142590217567424 0.12981385417488439 0.018518518518518535 0.043143145578455749 -0.42790147943992257 0.01142408728894454 -2.0445053834242928
decision_type=2 2 2 2 2 2 2 2 2 2 2 2 2 2 2 2 2 2 2 2 2 2 2 2 2 2 2 2 2 2
left_child=2 12 7 20 23 6 22 18 9 -7 11 -8 13 -2 -6 16 17 -11 -1 -9 -3 -16 -4 24 25 -5 -10 28 -20 -29
right_child=1 3 5 4 14 8 10 19 26 15 -12 -13 -14 -15 21 -17 -18 -19 27 -21 -22 -23 -24 -25 -26 -27 -28 29 -30 -31
leaf_value=0.00066666971885239519 -0.00012023839014888948 -0.00050324701476520161 0.0011671815600728937 -0.00013960247050141177 -0.00013514526377285253 5.7231455863573359e-05 0.00817235259601648 0.00080072137226081582 1.310892769681442e-05 8.9709529869937943e-05 0.00027910411675892226 0.0022343265334565706 -4.3131373037858088e-05 -0.00037349832546364572 0.0010235877908116664 0.00014134343705631856 0.00058340063862607735 -0.0042815785114421632 0.0075712282448936411 0.00017380691627830527 -0.00012739174268136595 -0.0026057359557369753 0.00021219430466696347 -0.00032587251959143758 -0.0021918894177576534 -0.00084119089104538213 -0.00013008077040814478 -0.0021212211245848676 0.0012238109954806717 0.0018233307890733242
leaf_weight=3240 26782 3598 557 759 116 126169 29 1111 69152 1893 45 41 66753 9140 28 13292 5324 22 21 7432 9869 378 1364 2359 226 3552 18466 24 24 231
leaf_count=3240 26782 3598 557 759 116 126169 29 1111 69152 1893 45 41 66753 9140 28 13292 5324 22 21 7432 9869 378 1364 2359 226 3552 18466 24 24 231
internal_value=-2.48231e-06 -0.000145327 6.85414e-05 -0.000403563 -0.000721273 5.12038e-05 0.000639421 0.000407263 4.60712e-05 8.37824e-05 0.00306024 0.00477384 -9.27508e-05 -0.000184818 -0.00186201 0.000246701 0.000439459 3.66593e-05 0.000771044 0.00025593 -0.000228184 -0.00234294 0.000491745 -0.000634173 -0.00079336 -0.000718834 -1.70122e-05 0.00188103 0.00430702 0.00143179
internal_weight=371997 123560 248437 20885 7418 236354 2036 12083 234318 146700 115 70 102675 35922 522 20531 7239 1915 3540 8543 13467 406 1921 6896 4537 4311 87618 300 45 255
internal_count=371997 123560 248437 20885 7418 236354 2036 12083 234318 146700 115 70 102675 35922 522 20531 7239 1915 3540 8543 13467 406 1921 6896 4537 4311 87618 300 45 255
is_linear=0
shrinkage=0.05


Tree=18
num_leaves=31
num_cat=0
split_feature=39 0 7 22 39 34 40 6 0 39 23 6 6 15 21 36 41 23 36 0 1 40 41 22 36 39 2 1 11 19
split_gain=1.37434 0.754299 0.673957 0.404138 0.286022 0.316266 0.256293 0.239428 0.234544 0.165793 0.202604 0.202088 0.240064 0.155144 0.153185 0.148651 0.143641 0.143516 0.161811 0.141639 0.140887 0.157888 0.228521 0.136005 0.134537 0.134132 0.173893 0.181288 0.199405 0.148201
threshold=0.7499997787997229 -0.076960948082056793 0.049663709072445793 -0.66825517999171957 0.2010873959401013 0.048631758386928868 0.41269840063525892 -0.56987397227834136 0.15269091222962008 0.99999999680280272 0.16094697495873797 1.1992403418447559 0.11765491762510748 0.027783372597119164 0.016538283268326504 0.034428829791686065 0.10351919155752126 0.10966982513093466 0.063463273916522928 0.046734013158371099 0.27648295881231816 0.87500006527421559 0.83333344342298588 -0.83423124424652573 0.069605337852801444 1.0000000180025095e-35 -0.11990561966086238 0.27648295881231816 -1.7842578904650062 0.074856627333284284
decision_type=2 2 2 2 2 2 2 2 2 2 2 2 2 2 2 2 2 2 2 2 2 2 2 2 2 2 2 2 2 2
left_child=1 7 13 8 5 -3 17 -1 -4 16 -11 12 -12 -2 -10 -16 -5 18 19 -7 -18 22 -22 -15 -23 26 27 -9 -29 -30
right_child=2 4 3 9 -6 6 -8 25 14 10 11 -13 -14 23 15 -17 20 -19 -20 -21 21 24 -24 -25 -26 -27 -28 28 29 -31
leaf_value=0.0010522454530897743 -5.5392732429303359e-05 6.6548644600525017e-05 -0.00077991899328231631 0.0037672525229440496 -4.1591836980460065e-06 0.0005433545091214592 -3.8639247000027298e-05 0.00099840606093902886 0.0010536509037551111 -0.00051330039257806853 -0.00086450959875512476 0.00025035253420657635 -0.0085227783702581054 -0.0004099634216801403 -0.00092014620520682782 -0.0041053941448212766 -0.00014115016184851009 0.0010290760391404334 0.00017138735989149316 0.0046800404145951732 -0.0019979243241808513 -0.00053987370488877914 0.0034593224812252627 -0.00014229428303051526 -0.0061357237243146144 0.00021314587026742996 0.00048056767436522262 7.4103942735344059e-05 0.0069386736538267976 0.0017282938567060695
leaf_weight=1596 54445 93369 4357 23 154624 5644 3942 346 24 3869 20 24 25 6075 60 117 7251 919 5189 21 70 20 26 22282 30 4866 2665 32 41 25
leaf_count=1596 54445 93369 4357 23 154624 5644 3942 346 24 3869 20 24 25 6075 60 117 7251 919 5189 21 70 20 26 22282 30 4866 2665 32 41 25
internal_value=-2.35534e-06 5.5393e-05 -0.000162269 -0.000460344 3.95468e-05 0.000101545 0.000309151 0.000491472 -0.000858655 -0.000300054 -0.000562778 -0.00325998 -0.00523943 -0.000104913 -0.00253928 -0.00305501 -0.00015994 0.000426028 0.000374498 0.000559654 -0.000172878 -0.00171323 -0.000465829 -0.000199815 -0.00400273 0.000378608 0.000635955 0.00155705 0.00347542 0.00504629
internal_weight=371997 273279 98718 15916 263708 109084 15715 9571 4558 11358 3938 69 45 82802 201 177 7420 11773 10854 5665 7397 146 96 28357 50 7975 3109 444 98 66
internal_count=371997 273279 98718 15916 263708 109084 15715 9571 4558 11358 3938 69 45 82802 201 177 7420 11773 10854 5665 7397 146 96 28357 50 7975 3109 444 98 66
is_linear=0
shrinkage=0.05


Tree=19
num_leaves=31
num_cat=0
split_feature=39 0 34 6 30 2 10 2 39 21 23 21 0 18 0 3 10 1 11 39 30 0 8 17 22 6 34 41 18 9
split_gain=1.2407 0.694534 0.612548 0.387051 0.362898 0.214248 0.199888 0.185903 0.18067 0.222279 0.274402 0.176506 0.171576 0.217886 0.160967 0.171075 0.158601 0.146414 0.229258 0.150566 0.145008 0.134382 0.137137 0.183315 0.131163 0.200804 0.130468 0.124939 0.123839 0.179046
threshold=0.7499997787997229 -0.046520013825011718 0.046249411154891368 -0.56987397227834136 -0.79300070902368425 -0.055555519768705368 0.048562893878217127 0.12307697301785768 0.2010873959401013 -0.0023288989161766795 0.07222530626244536 0.18120807810481074 0.19671045996844044 0.17506146937844538 -0.13976200654031337 0.031460443279472859 0.031903037473553025 0.27648295881231816 0.85704917912775314 0.95945965311812331 0.457698705399879 -0.18232154943535656 -0.19047618804334773 -0.025131445319652022 -0.22694022184282606 -0.45754237807916703 0.05195626271429362 0.23188407599417801 0.11570688232309569 -0.04790329155962942
decision_type=2 2 2 2 2 2 2 2 2 2 2 2 2 2 2 2 2 2 2 2 2 2 2 2 2 2 2 2 2 2
left_child=1 3 16 21 6 -3 -4 12 9 10 -7 -9 -6 -14 24 -16 -2 -13 19 -19 -18 22 23 -1 -5 -26 -10 28 -27 -30
right_child=2 5 4 14 7 8 -8 11 26 -11 -12 17 13 -15 15 -17 20 18 -20 -21 -22 -23 -24 -25 25 27 -28 -29 29 -31
leaf_value=0.001687967050758707 -5.3842754804847982e-05 0.00037838101968725059 -0.00045443561512756417 0.0015232462471784797 -0.0001687413625502417 0.00010218829903261367 -0.0010830454104592245 -0.0010154813489985342 3.8436456657802299e-06 -4.3677946247072277e-05 0.0006135202534382708 0.00024652436313120298 -0.0009598827391212848 -0.0060433531779496147 4.7797436240826425e-05 0.00036770407942307614 -0.00031050728315584189 -0.0014971435869970511 -7.9524607154662175e-06 -0.0076257094392173375 -1.880479297266783e-05 0.00068112341341819459 0.001103703331620522 0.0081512624462742114 -0.0043707917042747485 0.00051514536023630753 -0.00014183154773620541 -0.00014536647998615842 0.0029303215905695456 0.0001295599638001545
leaf_weight=30 60435 4284 2559 356 11077 66794 2578 1463 129532 28322 2736 622 132 26 11226 6699 13393 24 85 21 6303 4190 105 20 21 811 17431 476 146 100
leaf_count=30 60435 4284 2559 356 11077 66794 2578 1463 129532 28322 2736 622 132 26 11226 6699 13393 24 85 21 6303 4190 105 20 21 811 17431 476 146 100
internal_value=-2.23621e-06 5.26319e-05 -0.000154177 0.000308494 -0.000412861 2.77753e-05 -0.000770891 -0.000275741 2.16195e-05 7.4267e-05 0.000122382 -0.00069525 -0.000192584 -0.00183132 0.000214508 0.000167635 -9.41105e-05 -6.55466e-05 -0.00159616 -0.00447857 -0.000217413 0.000736375 0.00219631 0.0043842 0.000651756 0.000448807 -1.34007e-05 0.000518371 0.000821988 0.00181263
internal_weight=371997 273279 98718 24180 18587 249099 5137 13450 244815 97852 69530 2215 11235 158 19835 17925 80131 752 130 45 19696 4345 155 50 1910 1554 146963 1533 1057 246
internal_count=371997 273279 98718 24180 18587 249099 5137 13450 244815 97852 69530 2215 11235 158 19835 17925 80131 752 130 45 19696 4345 155 50 1910 1554 146963 1533 1057 246
is_linear=0
shrinkage=0.05


Tree=20
num_leaves=31
num_cat=0
split_feature=39 0 31 30 0 30 7 39 30 0 35 23 24 29 41 8 31 2 31 2 30 22 32 35 23 32 41 15 32 2
split_gain=1.1123 0.78291 0.473277 0.386983 0.317553 0.258286 0.185848 0.183221 0.166789 0.240336 0.172741 0.229272 0.230562 0.210263 0.168287 0.225414 0.170076 0.192802 0.153974 0.150437 0.145138 0.143207 0.13669 0.125448 0.113226 0.113113 0.133443 0.129119 0.112307 0.119878
threshold=0.59090903834041286 -0.12136080965074704 0.05195626271429362 -0.79300070902368425 -0.033901518790360567 -0.78422071132335558 0.048562893878217127 0.99999999919999971 1.578186278960964 0.10536052180415538 -0.18832742434989327 0.16094697495873797 -0.036027321189640742 0.31803009573830249 0.14823010364094011 0.064687209687562489 0.12600413161633636 0.20419198900338911 0.029473239613499323 -0.049402790035557503 3.2143428975940993 -0.27925371455450904 -0.09726234759189166 -1.8322368018368533 0.16094697495873797 0.68282320292925303 0.27555038848435232 0.11570688232309569 0.68282320292925303 -0.11990561966086238
decision_type=2 2 2 2 2 2 2 2 2 2 2 2 2 2 2 2 2 2 2 2 2 2 2 2 2 2 2 2 2 2
left_child=1 21 7 6 5 24 -4 -2 9 -5 -11 25 -13 22 15 -10 -16 20 -9 -6 -18 -1 -14 -7 -3 26 -12 -27 29 -25
right_child=2 4 3 8 19 23 -8 18 14 10 11 12 13 -15 16 -17 17 -19 -20 -21 -22 -23 -24 28 -26 27 -28 -29 -30 -31
leaf_value=0.00135374776429754 -3.5868495145382252e-05 0.0005337215959775797 -0.00037370289246608298 -0.00018924674084483403 0.00033583696313671763 -0.00041026584109107297 -0.00098750043707025899 -8.789653895910399e-05 8.8274838319656358e-05 8.6798395039382274e-05 0.00034726761821001758 0.00077297722486720103 -0.0034875595557563631 -0.001167740084478336 0.00022602472299652855 0.0071614390665396517 0.0016995740567227495 -0.0049003827956414989 -0.00031590518868345916 2.7890601632284938e-05 -0.0023850804828768161 0.00062001304700150001 -0.0095920986952297248 0.0011319220526970842 0.0042406966077755265 -0.00034674852235574744 -0.0013256834577573921 0.0033476850230733241 -0.00047208500120510884 0.00017021096958800075
leaf_weight=977 91901 4547 2270 10489 4055 973 2793 19316 29 379 132 22 20 27 2118 20 41 34 12096 188153 45 2245 25 330 21 119 905 29 668 26303
leaf_count=977 91901 4547 2270 10489 4055 973 2793 19316 29 379 132 22 20 27 2118 20 41 34 12096 188153 45 2245 25 330 21 119 905 29 668 26303
internal_value=1.61646e-06 7.00995e-05 -0.000107814 -0.000336795 5.89958e-05 0.000202711 -0.000713304 -7.1569e-05 -0.000204376 -0.000278291 -0.000838551 -0.00111665 -0.00351142 -0.00488915 0.000186017 0.00308582 0.000120158 -0.00170539 -0.000175857 3.44135e-05 -0.000379961 0.000844089 -0.00700358 0.000146109 0.00055195 -0.000922186 -0.0011079 0.000345171 0.000166122 0.000182319
internal_weight=371082 228272 142810 19497 225050 32842 5063 123313 14434 12147 1658 1279 94 72 2287 49 2238 120 31412 192208 86 3222 45 28274 4568 1185 1037 148 27301 26633
internal_count=371082 228272 142810 19497 225050 32842 5063 123313 14434 12147 1658 1279 94 72 2287 49 2238 120 31412 192208 86 3222 45 28274 4568 1185 1037 148 27301 26633
is_linear=0
shrinkage=0.05


Tree=21
num_leaves=31
num_cat=0
split_feature=39 0 39 7 7 18 39 13 30 20 30 0 13 1 12 24 1 27 23 6 1 0 1 16 5 0 3 7 30 6
split_gain=1.00859 0.659169 0.434021 0.504886 0.291716 0.251197 0.261334 0.387446 0.220218 0.200142 0.19267 0.297342 0.173749 0.157678 0.144842 0.139951 0.274447 0.207693 0.143902 0.176837 0.172919 0.226657 0.144539 0.176325 0.139318 0.138157 0.135145 0.148621 0.190215 0.135058
threshold=0.40000152571890707 -0.12136080965074704 0.94687158970725926 0.033267206992917936 0.12388043833834655 0.034615910610687091 1.0000000180025095e-35 -0.0073839999826863113 -0.20066651694081658 0.13630629364961513 -0.78422071132335558 0.03774045715570145 0.071088332405753171 0.0027479035280470842 0.13682030421629884 -0.36064492927355546 0.13817257148195961 0.43274497077127305 0.13593700127597366 2.1793199021608562 0.33333331743876143 0.19671045996844044 0.20000000662273854 0.12263552598775097 -0.057750761370944703 0.13103187246913281 0.034687476921211442 0.12388043833834655 4.6453693746483387 0.54801591304303887
decision_type=2 2 2 2 2 2 2 2 2 2 2 2 2 2 2 2 2 2 2 2 2 2 2 2 2 2 2 2 2 2
left_child=1 9 10 -4 8 -3 7 -7 -5 29 11 -2 -11 24 -6 16 -12 -18 -17 20 21 22 -20 -24 -8 -22 -15 -28 -29 -1
right_child=2 5 3 4 14 6 13 -9 -10 12 15 -13 -14 26 -16 18 17 -19 19 -21 25 -23 23 -25 -26 -27 27 28 -30 -31
leaf_value=0.0010274934790532346 -0.00010847487855569524 3.7513652286918426e-05 -9.6081509432996537e-05 -0.00055181293485666685 -0.00099784377200767414 0.00042728614810504204 0.0013515114253564041 -0.00025109574041586616 -0.00015964729025478531 0.0020002422500243833 6.43586324805513e-05 -0.00079745174100410337 -0.0025489008182138909 -4.0980527106407253e-05 -0.0026438531842200921 -3.5344484281835244e-06 0.0018245865418201612 0.0073252596841657178 -5.6946480005594591e-05 -0.0038511938611834186 0 -0.0039630269768434609 -0.0049887638946247313 -0.00044233677227226566 0.00028380357689985661 0.0049929231785419415 0.00014825717119299226 0.00079830868292676219 0.0048654480837648185 0.00029259664479345962
leaf_weight=1218 27219 121960 34429 8623 628 14616 334 2449 6195 443 355 1665 21 17537 178 116483 125 21 437 43 29 51 36 59 4067 24 10113 356 32 1336
leaf_count=1218 27219 121960 34429 8623 628 14616 334 2449 6195 443 355 1665 21 17537 178 116483 125 21 437 43 29 51 36 59 4067 24 10113 356 32 1336
internal_value=1.53558e-06 8.90489e-05 -7.61068e-05 -0.000203244 -0.000439064 7.61231e-05 0.000171142 0.000329638 -0.000388199 0.000821727 -3.26491e-05 -0.000148366 0.00178308 8.76077e-05 -0.00136784 -4.20013e-06 0.00082952 0.00265447 -7.80861e-06 -0.000733573 -0.000514358 -0.000769402 -0.000453163 -0.0022212 0.000365999 0.00219314 4.37304e-05 0.000185676 0.00114779 0.000645052
internal_weight=371082 174482 196600 50053 15624 171464 49504 17065 14818 3018 146547 28884 464 32439 806 117663 501 146 117162 679 636 583 532 95 4401 53 28038 10501 388 2554
internal_count=371082 174482 196600 50053 15624 171464 49504 17065 14818 3018 146547 28884 464 32439 806 117663 501 146 117162 679 636 583 532 95 4401 53 28038 10501 388 2554
is_linear=0
shrinkage=0.05


Tree=22
num_leaves=31
num_cat=0
split_feature=39 0 10 30 31 30 0 0 6 29 0 1 29 10 19 27 28 39 2 17 3 5 28 23 11 24 11 1 24 31
split_gain=0.91527 0.654064 0.408394 0.326741 0.268325 0.2277 0.317792 0.219213 0.215355 0.163898 0.20025 0.134753 0.160149 0.134254 0.177836 0.134865 0.177567 0.188564 0.131826 0.129111 0.122552 0.114786 0.145339 0.114214 0.108073 0.106819 0.10338 0.100318 0.185104 0.152478
threshold=0.59090903834041286 -0.098440550822495435 0.068898253089966555 -0.30904138523115759 0.10472964902667549 -0.65478044871743102 0.038855751072921947 -0.033901518790360567 -0.56411541030779488 -0.41312830733072337 0.11778300782675381 0.048951087426345623 0.086404345566197277 0.097538112768296534 -3.1622258805139851 0.48160620305748542 0.08238603561691131 1.0000000180025095e-35 -0.049402790035557503 -0.040233628842828974 0.031460443279472859 0.17831129995039754 0.051550146739823687 0.16094697495873797 -0.41606526074068723 -0.2237463036694354 -0.94353149397224356 0.15384615682046651 0.40909083520085526 0.14976328000031755
decision_type=2 2 2 2 2 2 2 2 2 2 2 2 2 2 2 2 2 2 2 2 2 2 2 2 2 2 2 2 2 2
left_child=1 13 5 4 25 6 -2 8 19 10 -5 -7 -13 -1 -15 16 -16 26 -9 24 -10 -6 -23 -21 -3 -4 -18 -11 29 -29
right_child=2 7 3 9 21 11 -8 18 20 27 -12 12 -14 14 15 -17 17 -19 -20 23 -22 22 -24 -25 -26 -27 -28 28 -30 -31
leaf_value=0.0004158571852820389 -0.00012455267225350565 0 0.00051505586551264446 -1.305234959382429e-05 -0.0013213800764815618 1.6366611764746475e-05 -0.00061040492041136664 0.00031277141488525234 1.8001807987017895e-05 -4.874749528377165e-05 0.0064088322524581609 -0.00021673971756678621 3.2273618032078559e-05 -0.003281181024317919 0.00071284156483051447 0.0002274170068043121 0.0053376704450198318 0.0012506711798093708 2.4499538723199938e-05 0.00045231347930340575 0.00024461161953410657 2.3636519403209501e-05 -0.0044408596115222904 0.0035656432087449634 -0.0049079749428560561 -0.00059358393951881427 0.0024543091967726438 -0.0007392722602287741 0.00027660485129111346 -0.0035949290471668249
leaf_weight=3360 41486 29 225 25 676 59535 3671 4055 14800 4576 21 16321 10631 24 809 455 44 475 188153 5795 10056 22 67 30 20 3948 167 1052 504 50
leaf_count=3360 41486 29 225 25 676 59535 3671 4055 14800 4576 21 16321 10631 24 809 455 44 475 188153 5795 10056 22 67 30 20 3948 167 1052 504 50
internal_value=1.45631e-06 6.35797e-05 -9.78087e-05 -0.000388235 -0.000692257 -7.31366e-05 -0.000164162 5.04637e-05 0.000174496 -0.000146374 0.00281776 -2.55522e-05 -0.000118333 0.000610825 0.000940115 0.000994799 0.00122498 0.00182145 3.06074e-05 0.000447051 0.000109883 -0.00155646 -0.00328237 0.000469267 -0.00208764 -0.000532599 0.00308151 -0.000169284 -0.000509593 -0.00087369
internal_weight=371082 228272 142810 11166 4938 131644 45157 222938 30730 6228 46 86487 26952 5334 1974 1950 1495 686 192208 5874 24856 765 89 5825 49 4173 211 6182 1606 1102
internal_count=371082 228272 142810 11166 4938 131644 45157 222938 30730 6228 46 86487 26952 5334 1974 1950 1495 686 192208 5874 24856 765 89 5825 49 4173 211 6182 1606 1102
is_linear=0
shrinkage=0.05


Tree=23
num_leaves=31
num_cat=0
split_feature=39 0 39 7 15 40 20 15 28 36 3 30 0 30 19 1 22 13 28 41 44 1 11 30 44 40 1 28 24 1
split_gain=0.839148 0.570333 0.374692 0.435982 0.22526 0.265274 0.203486 0.198071 0.197962 0.193872 0.181865 0.16015 0.263988 0.154698 0.154615 0.149552 0.14233 0.137976 0.170959 0.14506 0.151495 0.236754 0.13782 0.166334 0.175986 0.156107 0.134267 0.189819 0.131919 0.27699
threshold=0.3999999998000025 -0.12136080965074704 0.94687158970725926 0.049663709072445793 0.034615910610687091 1.0000000180025095e-35 0.13630629364961513 0.10762274510114088 0.22674243961247592 0.099933616933329347 0.031460443279472859 -0.78422071132335558 0.024692594518020049 1.578186278960964 -0.60416011031150296 0.054054054054054161 0.26535095596509362 0.15116502217785743 0.062121026558810612 0.55319185445506946 0.13382897316366996 0.0080645230205393589 0.96939302091682811 -0.61618104125243323 0.48445553616922987 0.19999999986933328 0.27648295881231816 0.11460551446845874 -0.36064492927355546 0.13817257148195961
decision_type=2 2 2 2 2 2 2 2 2 2 2 2 2 2 2 2 2 2 2 2 2 2 2 2 2 2 2 2 2 2
left_child=1 6 11 15 -3 -6 -1 13 14 26 -7 12 -2 -5 -9 -4 17 -16 -19 -20 21 -21 23 25 -25 -11 -8 -28 29 -13
right_child=2 4 3 7 5 10 9 8 -10 22 -12 28 -14 -15 16 -17 -18 18 19 20 -22 -23 -24 24 -26 -27 27 -29 -30 -31
leaf_value=0.00058791052627912247 -8.1562996911169354e-05 3.3438262529782128e-05 -8.6524168944457559e-05 -0.00053946376925761313 0.00043474645024342584 1.6944518179778873e-05 0.0019621579240243908 0.00040294952327644799 -0.0060575025928564265 0.00068471220351452205 0.00022922253737217804 4.3440313522691862e-05 -0.00056979441681218111 0.00010444647789054267 -0.0011015031963709247 -0.00036581478749933078 -0.00041768082883862759 -0.001387279340248882 -0.0011778369357351016 -0.011153353052845908 -0.0024873576652674973 -0.0036080077772893274 -0.0017334927173426771 0.0014405718817226841 -0.0023940690764419929 0.0065967598625084256 0.0022483008577766726 0.0086327063995765979 -6.4073650392255418e-06 0.0026125898346310208
leaf_weight=2543 26395 120589 36699 5788 7500 22872 76 140 21 22 18133 368 3100 1097 281 5534 267 115 32 22 32 25 37 209 34 28 27 25 118922 149
leaf_count=2543 26395 120589 36699 5788 7500 22872 76 140 21 22 18133 368 3100 1097 281 5534 267 115 32 22 32 25 37 209 34 28 27 25 118922 149
internal_value=1.38638e-06 8.225e-05 -6.85239e-05 -0.000186894 7.00912e-05 0.000161111 0.000765659 -0.000530021 -0.00121584 0.00174133 0.000110939 -2.87089e-05 -0.000133049 -0.000436142 -0.00109848 -0.00012324 -0.00137653 -0.00187145 -0.00280574 -0.00422775 -0.00539689 -0.00726221 0.00107778 0.00145031 0.000882706 0.00410182 0.00341085 0.00542437 -2.90064e-06 0.000793904
internal_weight=371082 172095 198987 50053 169094 48505 3001 7820 935 458 41005 148934 29495 6885 914 42233 774 507 226 111 79 47 330 293 243 50 128 52 119439 517
internal_count=371082 172095 198987 50053 169094 48505 3001 7820 935 458 41005 148934 29495 6885 914 42233 774 507 226 111 79 47 330 293 243 50 128 52 119439 517
is_linear=0
shrinkage=0.05


Tree=24
num_leaves=31
num_cat=0
split_feature=39 0 7 7 30 0 34 30 34 32 13 3 3 3 0 41 29 39 13 34 30 0 28 5 30 41 39 0 41 41
split_gain=0.763586 0.551583 0.407491 0.232121 0.313808 0.195993 0.191956 0.173503 0.164386 0.30254 0.226852 0.225749 0.198272 0.158459 0.1417 0.129524 0.128125 0.124871 0.223794 0.302353 0.130406 0.207075 0.16809 0.261499 0.140386 0.124772 0.1243 0.104033 0.196902 0.193169
threshold=0.7499997787997229 -0.086074644883211968 0.11446649413852754 0.031600177307355239 -0.038091806134915078 -0.025975590367521839 0.042815799579220264 -0.79744919526101354 0.14976328000031755 0.24399901741546695 0.090342676698212263 0.19819471946433737 0.23953388065665079 0.031460443279472859 0.10536052180415538 0.19720254436363432 0.092896144535126693 0.19999999998510348 -0.0025575447570332656 0.048631758386928868 1.0914438071014148 0.036277961161382592 0.12946922792078167 -0.024390253265767256 -0.82540816892107338 0.5191169301868207 0.61894565439563509 0.13103187246913281 0.24999999997592595 0.61363636361962814
decision_type=2 2 2 2 2 2 2 2 2 2 2 2 2 2 2 2 2 2 2 2 2 2 2 2 2 2 2 2 2 2
left_child=1 6 3 -2 14 7 -1 -3 15 10 -10 -11 -12 -9 -5 -4 -6 18 19 -7 21 -19 -22 -24 -23 -21 -8 -25 -29 -30
right_child=2 5 8 4 16 17 26 13 9 11 12 -13 -14 -15 -16 -17 -18 20 -20 25 22 24 23 27 -26 -27 -28 28 29 -31
leaf_value=2.8888631893828592e-05 -4.8813463570871226e-05 0.00038968432549429499 0.0014712169052555173 -0.00031440901472343848 -0.00018616763744251419 6.7652115026513754e-05 0.00064167034451241892 4.2241286269919554e-06 0 0.0026638465899825464 -0.0072431343682784659 -0.0031691066055721025 -0.0015893345192017684 0.00021332242628346204 -0.00094526160297393768 -0.00077747262722862318 0.00012200457450453182 -1.4344793940812232e-05 -6.743364104238583e-05 0.00048909572004469731 0.00010289973300682831 -0.00078523277296285395 0.0055601508785362757 0 -0.00018759276401881335 5.3011280608356959e-06 -0.0012325991110754767 0.0062648746936700018 -0.0016716312601530098 0.0043777255665001088
leaf_weight=1908 64273 5607 65 17651 6646 52377 5571 21918 26 40 51 28 26 15506 947 1684 6835 113920 24180 6665 14049 1131 33 153 7935 1692 88 22 34 21
leaf_count=1908 64273 5607 65 17651 6646 52377 5571 21918 26 40 51 28 26 15506 947 1684 6835 113920 24180 6665 14049 1131 33 153 7935 1692 88 22 34 21
internal_value=1.31562e-06 4.43765e-05 -0.000118174 -0.000103741 -0.000213637 3.23478e-05 0.000465349 0.000130031 -0.000839786 -0.00233142 -0.00404147 0.000187494 -0.00540345 9.09944e-05 -0.000346805 -0.000690964 -2.95507e-05 1.3409e-05 6.10819e-05 0.00011233 -1.60386e-05 -3.2694e-05 0.000126734 0.00138041 -0.000262709 0.000391744 0.00061162 0.00075682 0.00225449 0.000551132
internal_weight=371082 272810 98272 96352 32079 265243 7567 43031 1920 171 103 68 77 37424 18598 1749 13481 222212 84914 60734 137298 122986 14312 263 9066 8357 5659 230 77 55
internal_count=371082 272810 98272 96352 32079 265243 7567 43031 1920 171 103 68 77 37424 18598 1749 13481 222212 84914 60734 137298 122986 14312 263 9066 8357 5659 230 77 55
is_linear=0
shrinkage=0.05


Tree=25
num_leaves=31
num_cat=0
split_feature=39 0 31 6 0 14 32 38 31 2 0 1 7 11 30 36 39 30 0 5 17 2 39 2 6 19 19 1 5 32
split_gain=0.708158 0.412358 0.376744 0.236657 0.208014 0.216879 0.216111 0.213458 0.280203 0.182609 0.155856 0.15438 0.162191 0.152057 0.14808 0.145598 0.15086 0.141482 0.340986 0.136747 0.141847 0.118188 0.115989 0.176932 0.122173 0.112392 0.191901 0.110471 0.133359 0.108946
threshold=0.85714285695305936 -0.038859898095510804 0.053701746239206781 -0.56987397227834136 0.19671045996844044 6.1717074084254344 -0.22289462259371742 -0.027574900235364155 0.14976328000031755 -0.049402790035557503 -0.18232154943535656 0.27648295881231816 0.1923702346405585 1.2395469058446438 -0.76187094233969177 0.052948179314093763 0.15313902255638376 1.578186278960964 0.058162611937322993 0.035949848233640606 -0.018915294517428915 0.01582357881465429 1.0000000180025095e-35 -0.11990561966086238 3.6397315137580661 -0.93976195056943246 0.055805069989113228 0.055118119926630522 0.059358840051568114 -0.074999998344315352
decision_type=2 2 2 2 2 2 2 2 2 2 2 2 2 2 2 2 2 2 2 2 2 2 2 2 2 2 2 2 2 2
left_child=1 3 27 10 14 6 -6 8 29 -3 15 12 -9 -13 -4 -1 25 18 21 -19 -21 -11 23 24 -5 -17 -27 -2 -29 -8
right_child=2 9 4 22 5 -7 7 11 -10 17 -12 13 -14 -15 -16 16 -18 19 -20 20 -22 -23 -24 -25 -26 26 -28 28 -30 -31
leaf_value=0.00011418998340230113 -6.8504588523657034e-05 0.00031256705504819997 -0.00067269160746558922 0.0014361816961158346 0.00043301361895073311 0.0018740130353000371 -0.0005020371816128787 -0.0010508846950560463 -0.008256632548746588 2.385242055327875e-05 0.0004458602759688223 -0.0064955756864297932 0.0034046026051560521 -0.0003124701665987756 -0.00022595783608356869 0.00096350522568236236 5.5033665001887419e-05 7.9389919376378151e-05 -0.00039553744289248734 0.0035737753925081392 0.00040205653048673784 -6.5744277436267589e-05 6.5056004760684206e-05 0.00023302443819890909 -0.001487427381823728 0.008927349363123456 0.0024328484207077729 -0.00040590070127747668 -3.6605049257925117e-05 -0.0034948225488022362
leaf_weight=67 50470 5028 2921 460 93 45 48 160 27 195896 5702 24 23 20 5231 20 30 15863 5378 36 3136 45309 17492 8048 37 25 26 5818 4271 109
leaf_count=67 50470 5028 2921 460 93 45 48 160 27 195896 5702 24 23 20 5231 20 30 15863 5378 36 3136 45309 17492 8048 37 25 26 5818 4271 109
internal_value=1.0647e-06 3.40932e-05 -0.000143144 0.00020411 -0.000450953 -0.00139643 -0.00169867 -0.00219317 -0.00347196 1.4031e-05 0.000491235 -0.00113353 -0.000462044 -0.00380553 -0.00038665 0.00200035 0.00320076 8.36093e-06 -1.75786e-06 0.000139704 0.000439741 7.00144e-06 0.000139185 0.000290343 0.00120821 0.00445767 0.00572551 -9.88348e-05 -0.000250063 -0.00261256
internal_weight=371813 302553 69260 31907 8701 549 504 411 184 270646 5870 227 183 44 8152 168 101 265618 246583 19035 3172 241205 26037 8545 497 71 51 60559 10089 157
internal_count=371813 302553 69260 31907 8701 549 504 411 184 270646 5870 227 183 44 8152 168 101 265618 246583 19035 3172 241205 26037 8545 497 71 51 60559 10089 157
is_linear=0
shrinkage=0.05


Tree=26
num_leaves=31
num_cat=0
split_feature=39 2 23 0 0 14 39 6 32 41 1 35 30 6 27 30 0 3 38 35 27 5 36 1 30 36 3 12 32 2
split_gain=0.639378 0.375623 0.336528 0.212904 0.207784 0.208647 0.188371 0.18255 0.179524 0.23457 0.187436 0.196203 0.179177 0.170675 0.173233 0.133828 0.287521 0.13256 0.230722 0.233308 0.333151 0.124258 0.158627 0.119789 0.11694 0.108695 0.107833 0.24444 0.169124 0.107447
threshold=0.85714285695305936 -0.07407406697244294 0.042802392776516825 -0.030918685837406753 0.19671045996844044 6.1717074084254344 1.0000000180025095e-35 -0.51502439081591955 -0.22289462259371742 0.71698109965607026 0.27648295881231816 1.1404133041623103 -0.76672236646328817 0.29313341591081638 0.60557688049012692 1.9414195028531991 0.058162611937322993 0.09628033466998058 -0.56947916666666665 -1.0397946027504248 -1.8846782257443395 0.035949848233640606 0.21291605445554659 0.058312641672876572 -0.6736272793331558 0.019484257069310378 -0.027777764900230723 0.1302363972461342 -0.29411764439222871 0.01582357881465429
decision_type=2 2 2 2 2 2 2 2 2 2 2 2 2 2 2 2 2 2 2 2 2 2 2 2 2 2 2 2 2 2
left_child=1 6 -2 7 12 8 -1 -3 -6 13 23 -12 25 14 -10 16 29 18 19 20 -8 -17 -23 -11 -18 -4 27 -20 -29 -5
right_child=2 3 4 15 5 -7 17 -9 9 10 11 -13 -14 -15 -16 21 24 -19 26 -21 -22 22 -24 -25 -26 -27 -28 28 -30 -31
leaf_value=0.00077452066322220795 -7.7347797676437073e-05 0.00033903295833833676 -9.8895505408552853e-05 2.3473202065079672e-05 0.00040411256791359818 0.0015488005726976011 -3.8922844376684706e-05 7.4869793645889978e-05 -0.0030626159131555528 -0.002743853540150467 0 -0.0063124130027386082 -0.00018358703614934288 -0.0020017627039671019 -0.0084830401314876947 8.4336108241058722e-05 -0.00079851160444169332 0.00055889834225528667 -6.4248534657830242e-05 -0.0003899694148271455 -0.0086268219283257407 0.00041446065101934711 0.0039172150260667095 0 -0.00023515798795885635 -0.00068692174952343003 1.0740934538070281e-05 0.0051123518008823962 0.0011103418565347721 -6.2059495941090532e-05
leaf_weight=2209 54018 8524 1026 192311 95 59 22 28460 39 50 22 32 9914 90 29 12227 1171 1814 194 87 26 2686 33 211 4571 3675 2735 48 68 45367
leaf_count=2209 54018 8524 1026 192311 95 59 22 28460 39 50 22 32 9914 90 29 12227 1171 1814 194 87 26 2686 33 211 4571 3675 2735 48 68 45367
internal_value=1.01283e-06 3.23971e-05 -0.000136013 2.36787e-05 -0.000343593 -0.00123743 0.000389184 0.00013589 -0.00153587 -0.00193608 -0.00112344 -0.00381786 -0.000304896 -0.00352286 -0.00545675 7.59681e-06 -1.29969e-06 0.000217724 2.15209e-05 -0.00199842 -0.00480292 0.000152824 0.000458954 -0.000545575 -0.000350929 -0.000559653 0.00011278 0.000996607 0.00281239 7.12602e-06
internal_weight=371813 302553 69260 295350 15242 627 7203 36984 568 473 315 54 14615 158 68 258366 243420 4994 3180 135 48 14946 2719 261 5742 4701 3045 310 116 237678
internal_count=371813 302553 69260 295350 15242 627 7203 36984 568 473 315 54 14615 158 68 258366 243420 4994 3180 135 48 14946 2719 261 5742 4701 3045 310 116 237678
is_linear=0
shrinkage=0.05


Tree=27
num_leaves=31
num_cat=0
split_feature=39 0 31 6 0 14 32 38 31 13 1 30 39 38 0 2 36 39 30 1 1 7 37 30 0 13 37 13 1 31
split_gain=0.577271 0.341148 0.314094 0.20033 0.168209 0.178719 0.177362 0.180431 0.250671 0.166917 0.217325 0.192738 0.171567 0.160383 0.141019 0.135369 0.131607 0.136435 0.12965 0.139364 0.129004 0.147742 0.144017 0.1149 0.295277 0.132682 0.121616 0.112139 0.125872 0.111171
threshold=0.85714285695305936 -0.038859898095510804 0.053701746239206781 -0.56987397227834136 0.19671045996844044 6.1717074084254344 -0.22289462259371742 -0.027574900235364155 0.14976328000031755 -0.20650702640378166 0.16071423154552242 0.023745764691715601 0.12499987581063991 0.19448591275003843 -0.18232154943535656 -0.049402790035557503 0.052948179314093763 0.15313902255638376 -0.074136106737808308 0.11082081768400716 0.27648295881231816 0.1923702346405585 0.082558106825469504 0.91208478344407862 0.058162611937322993 0.037402975674763674 -0.15652128920848926 -0.0047498867057800447 0.0087881979944816353 0.12600413161633636
decision_type=2 2 2 2 2 2 2 2 2 2 2 2 2 2 2 2 2 2 2 2 2 2 2 2 2 2 2 2 2 2
left_child=1 3 -2 14 18 6 -6 8 -8 10 13 12 -12 -3 16 -11 -1 -18 19 27 21 -9 -22 24 -17 -25 -27 -4 -29 -28
right_child=2 9 4 -5 5 -7 7 20 -10 15 11 -13 -14 -15 -16 23 17 -19 -20 -21 22 -23 -24 25 -26 26 29 28 -30 -31
leaf_value=8.8556878545096682e-05 -8.8775774480758852e-05 -2.7842504352811612e-06 0.00055025036778337847 0.00012566766560073684 0.00039120226596791208 0.001703251788374981 -0.0023457967245782974 -0.00095472665503657471 -0.0076859819685621018 0.00026964856046423876 0.0021410549327969763 0.0010730266871679436 0.0082331367268389348 0.0043846748490097226 0.00040640800004436385 2.1886566321941807e-06 0.0042212948783423784 2.7222228716081154e-05 -5.4459797061844832e-05 -0.0012151933720638915 -5.5592305511143502e-05 0.0032992965223275737 -0.0060597477140701163 4.5059321229670959e-05 -0.00039942414238229265 0.0041149426264891409 0.00031709157427733188 -0.00069905146860299464 -0.00017758306788390112 -0.0016751624753865775
leaf_weight=67 60559 324 288 26037 93 45 157 160 27 4961 28 83 24 22 5702 230411 71 30 2548 594 20 23 24 24068 4669 21 5965 2535 2187 70
leaf_count=67 60559 324 288 26037 93 45 157 160 27 4961 28 83 24 22 5702 230411 71 30 2548 594 20 23 24 24068 4669 21 5965 2535 2187 70
internal_value=9.58039e-07 3.07798e-05 -0.000129242 0.000185423 -0.000410307 -0.00126092 -0.00153578 -0.00198397 -0.00316032 1.25301e-05 0.00094315 0.00264804 0.00505916 0.000262927 0.000449613 1.08543e-05 0.00188516 0.00302625 -0.000352393 -0.000486961 -0.00100747 -0.000391251 -0.00345028 5.99429e-06 -5.7668e-06 9.79406e-05 0.000307274 -0.000399599 -0.0004586 0.000293128
internal_weight=371813 302553 69260 31907 8701 549 504 411 184 270646 481 135 52 346 5870 270165 168 101 8152 5604 227 183 44 265204 235080 30124 6056 5010 4722 6035
internal_count=371813 302553 69260 31907 8701 549 504 411 184 270646 481 135 52 346 5870 270165 168 101 8152 5604 227 183 44 265204 235080 30124 6056 5010 4722 6035
is_linear=0
shrinkage=0.05


Tree=28
num_leaves=31
num_cat=0
split_feature=39 10 31 23 39 2 17 16 35 0 6 23 30 0 11 40 3 31 30 2 22 1 1 3 24 1 24 5 15 31
split_gain=0.539874 0.395411 0.333763 0.286512 0.247844 0.20264 0.190961 0.410005 0.159461 0.157729 0.225654 0.173029 0.14861 0.282949 0.146761 0.134274 0.136334 0.202633 0.121911 0.121263 0.118922 0.136941 0.112205 0.109495 0.108419 0.155261 0.100562 0.192182 0.141431 0.165602
threshold=0.3999999998000025 0.12388043833834655 0.12600413161633636 0.053887081525692167 0.99999999680280272 -0.084178234305974597 -0.018915294517428915 -0.210498172643339 -3.9055260688990208 0.19671045996844044 1.0001303101381289 0.16094697495873797 -0.1335796942213244 0.049596947953619026 1.1727271498076048 0.81818174716927194 0.033146232993076417 0.036315246434569133 0.73247676497248781 0.026379658236536731 0.18565060953542681 0.11204743266744079 0.0021208912286335411 0.029941681223019424 0.60000001144409243 0.27648295881231816 -0.36064492927355546 0.13704069288749274 0.14358603708360954 0.12600413161633636
decision_type=2 2 2 2 2 2 2 2 2 2 2 2 2 2 2 2 2 2 2 2 2 2 2 2 2 2 2 2 2 2
left_child=1 5 8 12 26 23 7 -4 -3 20 11 14 13 19 -11 16 22 -18 24 -2 21 -6 -7 -1 25 -8 27 -5 -28 -30
right_child=3 2 6 4 9 15 18 -9 -10 10 -12 -13 -14 -15 -16 -17 17 -19 -20 -21 -22 -23 -24 -25 -26 -27 28 -29 29 -31
leaf_value=7.8276784625294242e-05 -2.7375591761209439e-05 -0.0010983464451284129 0.0021408509134228544 0.00028683732418127483 -0.00046444326821643554 0.00013821365340218423 0.001184900244066648 0.0092367013279364748 0.00052311048404045976 -0.00046403989179883527 -0.00011124708940447316 -0.0060638523659512188 2.8386220483275696e-05 -0.00043370202952741047 -0.0034532481676308661 -0.00021921528892643682 5.5649508231817276e-05 0.00023482198776846467 -0.0013319435109250758 -0.00018004283435591855 -5.4396099346109338e-06 -0.0014402756983180245 -2.2548261773869893e-05 0.00062570970839257768 -0.0014281431522662031 0.0050075038965440404 -0.0001150749195634119 0.0042857983959055388 -0.00019778715237994709 -0.0014994817803554172
leaf_weight=1521 89151 165 223 561 3652 13197 205 23 1665 89 168 32 64099 5034 84 4555 66727 20720 48 15258 1273 406 61057 2375 29 32 18391 32 631 410
leaf_count=1521 89151 165 223 561 3652 13197 205 23 1665 89 168 32 64099 5034 84 4555 66727 20720 48 15258 1273 406 61057 2375 29 32 18391 32 631 410
internal_value=9.1296e-07 6.56745e-05 0.0007045 -5.51368e-05 -0.000210879 5.66716e-05 0.00177492 0.00282808 0.000374129 -0.000501942 -0.00150124 -0.00261538 -3.20178e-05 -6.74412e-05 -0.00194549 4.82846e-05 5.58509e-05 9.81607e-05 0.000933265 -4.97339e-05 -0.000431058 -0.00056334 5.95641e-06 0.000413282 0.00136116 0.00172401 -0.00012772 0.000511749 -0.000147494 -0.00071536
internal_weight=371813 172542 2390 199271 25729 170152 560 246 1830 5704 373 205 173542 109443 173 166256 161701 87447 314 104409 5331 4058 74254 3896 266 237 20025 593 19432 1041
internal_count=371813 172542 2390 199271 25729 170152 560 246 1830 5704 373 205 173542 109443 173 166256 161701 87447 314 104409 5331 4058 74254 3896 266 237 20025 593 19432 1041
is_linear=0
shrinkage=0.05


Tree=29
num_leaves=31
num_cat=0
split_feature=39 7 31 31 39 2 40 38 41 22 0 40 25 6 19 35 20 2 39 22 40 24 20 35 2 32 31 16 12 19
split_gain=0.487388 0.356999 0.301414 0.260289 0.214237 0.182941 0.177158 0.158962 0.179301 0.174374 0.155611 0.19893 0.159714 0.167971 0.163478 0.145083 0.139733 0.137804 0.134591 0.122834 0.121193 0.117757 0.174056 0.116682 0.108955 0.217748 0.203611 0.226609 0.147758 0.122387
threshold=0.3999999998000025 0.12388043833834655 0.12600413161633636 0.052512230724924315 0.99999999680280272 -0.084178234305974597 0.37499999998230632 0.03195650396936351 0.2799999713477706 -0.66328290787111377 0.19671045996844044 0.99999999984003463 -0.0077075339913629344 0.34536025457763264 0.38602723781240561 -3.4309749799786684 0.19638166245051866 -0.15384612915783852 0.9999999995652179 0.15676045322728602 0.81818174716927194 -0.32349852635063492 0.24794798474655025 1.2148089682019443 0.10380983875438769 0.68282320292925303 0.14976328000031755 0.062499938532712081 0.27572196021686873 1.8992875394639712
decision_type=2 2 2 2 2 2 2 2 2 2 2 2 2 2 2 2 2 2 2 2 2 2 2 2 2 2 2 2 2 2
left_child=1 5 15 18 24 -1 7 -4 -9 -10 19 12 -12 14 -14 -3 -17 -18 -2 -6 -7 22 -19 -13 -5 26 28 -28 -26 -27
right_child=3 2 6 4 10 20 -8 8 9 -11 11 23 13 -15 -16 16 17 21 -20 -21 -22 -23 -24 -25 25 29 27 -29 -30 -31
leaf_value=0.00039268344224166008 -1.1379299103813329e-05 -0.00089238559313463894 0.0016864259550785838 -7.8626874396973802e-05 -0.00053255858278214679 5.3059921664722076e-05 0 0.0077183519044027489 0.0052768618920027545 -0.00023583232655406436 0.0009573090799045045 0.0016070756070039683 -0.0015635652900754735 -0.0013416598624461835 -0.005860222788105488 0.0006721100289086363 -0.0039189928870313985 0.0044741804285380457 -0.00013574550348780041 1.5817262813802699e-06 -0.00020825476644601836 -0.0014973412294002212 -0.00083640833495021597 -0.0018479925626766652 -0.00058607036748992093 0.0010657658866302193 -0.0060652833524510947 -0.00057540987913925503 0.0026181952444558516 -0.0014586813928500898
leaf_weight=3896 146925 204 354 18299 4210 161701 126 26 27 27 31 66 40 110 63 1462 30 27 25562 1421 4555 74 33 38 2018 317 36 44 36 55
leaf_count=3896 146925 204 354 18299 4210 161701 126 26 27 27 31 66 40 110 63 1462 30 27 25562 1421 4555 74 33 38 2018 317 36 44 36 55
internal_value=8.63349e-07 6.2397e-05 0.000669409 -5.23915e-05 -0.00019744 5.3841e-05 0.00168675 0.00216592 0.00422049 0.00243275 -0.000461521 -0.00149269 -0.00227539 -0.00276957 -0.00424325 0.000355285 0.000514939 -0.000855268 -2.9839e-05 -0.000396881 4.58704e-05 -0.000129663 0.00147363 0.000296054 -0.000121306 -0.000430942 -0.000626758 -0.00311276 -0.000527351 0.000678799
internal_weight=371813 172542 2390 199271 26784 170152 560 434 80 54 5979 348 244 213 103 1830 1626 164 172487 5631 166256 134 60 104 20805 2506 2134 80 2054 372
internal_count=371813 172542 2390 199271 26784 170152 560 434 80 54 5979 348 244 213 103 1830 1626 164 172487 5631 166256 134 60 104 20805 2506 2134 80 2054 372
is_linear=0
shrinkage=0.05


Tree=30
num_leaves=31
num_cat=0
split_feature=13 2 30 5 2 7 15 31 44 38 14 31 7 3 6 40 36 13 13 30 15 41 14 24 27 31 33 8 3 38
split_gain=0.380433 0.340493 0.300927 0.353412 0.217663 0.214953 0.142663 0.15884 0.221298 0.204776 0.134829 0.12901 0.128532 0.164748 0.194117 0.123842 0.194229 0.147757 0.155885 0.123215 0.114555 0.109381 0.170699 0.161733 0.102676 0.101919 0.101361 0.106668 0.113869 0.137908
threshold=-1.0000000180025095e-35 -0.11990561966086238 -0.65008304385801952 0.029862666373838297 0.0071090358440879355 0.083678376731292775 0.17506146937844538 0.12600413161633636 0.43822552151119204 0.081984156150928938 -0.061365706831774683 0.14976328000031755 0.15613154215887207 0.73676032009215919 -0.8290420079410904 0.57142868535590419 0.064112649294872301 0.16959063327498775 0.05225314913123378 1.578186278960964 0.031523083501060568 0.087912018806341544 -0.69997413347128801 -0.12500002783138306 0.68963151853838911 0.14976328000031755 0.0068548917710164982 0.096969679849097337 0.054379080507312196 -0.56947916666666665
decision_type=2 2 2 2 2 2 2 2 2 2 2 2 2 2 2 2 2 2 2 2 2 2 2 2 2 2 2 2 2 2
left_child=1 26 3 -2 5 -3 19 -8 15 -10 -11 -7 -5 14 -14 17 -17 18 -9 20 -4 22 -13 -23 -18 -22 27 28 29 -1
right_child=2 4 6 12 -6 11 7 8 9 10 -12 21 13 -15 -16 16 24 -19 -20 -21 25 23 -24 -25 -26 -27 -28 -29 -30 -31
leaf_value=-0.001871683086231486 -8.5415710944388844e-05 6.3243561834232313e-05 2.3753510597474726e-05 -0.0003794888424491233 -5.6256262238937127e-05 0.00033734052539766786 0.00015293260140130868 0.00046698082219901957 0.0040837436072485847 0.00055123345314536903 -0.0030554877271887857 0.0065629679101159369 -0.00096381661350180582 0.0026071076600303954 -0.004213641234638861 -4.8400260765122329e-05 -0.0039439515143380602 0.0018762679378506104 -0.0048831300831828654 0.0001246916684962565 -9.4337666201147933e-05 -0.00056182887336349698 0.0011792016371202994 0.0023237193302345673 -0.0088027506590030776 0.00099035363368149944 -0.00058610442185329258 0.0044561002308599893 0.0012383741404693224 0.00057586506204111763
leaf_weight=62 60733 137185 61578 9501 40579 4705 217 20 24 55 46 25 166 21 67 22 37 23 34 17918 36505 96 43 94 21 217 125 21 793 685
leaf_count=62 60733 137185 61578 9501 40579 4705 217 20 24 55 46 25 166 21 67 22 37 23 34 17918 36505 96 43 94 21 217 125 21 793 685
internal_value=1.38114e-06 5.23653e-05 -4.88159e-05 -0.00013039 4.58098e-05 7.49818e-05 4.05713e-07 -0.000843078 -0.00162702 -1.65212e-05 -0.00104337 0.000398429 -0.000409876 -0.00152623 -0.00192117 -0.00287661 -0.00428375 -0.00134613 -0.00281199 4.07108e-06 -1.78647e-05 0.00149254 0.00323868 0.000839928 -0.00580135 -8.77891e-05 0.000759831 0.000870842 0.00081842 0.000365806
internal_weight=371618 184413 187205 70488 182727 142148 116717 499 282 125 101 4963 9755 254 233 157 80 77 54 116218 98300 258 68 190 58 36722 1686 1561 1540 747
internal_count=371618 184413 187205 70488 182727 142148 116717 499 282 125 101 4963 9755 254 233 157 80 77 54 116218 98300 258 68 190 58 36722 1686 1561 1540 747
is_linear=0
shrinkage=0.05


Tree=31
num_leaves=31
num_cat=0
split_feature=39 2 15 39 12 31 13 28 40 19 13 29 15 30 1 0 39 15 21 30 0 2 37 1 0 21 1 7 15 31
split_gain=0.412332 0.305969 0.237193 0.255161 0.189212 0.188184 0.179519 0.20344 0.177559 0.175561 0.185949 0.174031 0.127831 0.118671 0.139083 0.125733 0.239349 0.153136 0.111853 0.111733 0.174602 0.14133 0.195991 0.116291 0.108752 0.108627 0.115265 0.136733 0.104731 0.125781
threshold=0.35802445874590466 -0.11990561966086238 0.035968391804844436 0.97297301618305487 0.15942514815244863 0.046249411154891368 -0.20650702640378166 0.12134437578913808 1.0000000180025095e-35 -9.941341197512868e-15 0.1381548226237366 0.59160975999036614 0.12749862038225032 1.657890615367698 0.12058521111542783 0.19671045996844044 0.99999999983902954 0.12749862038225032 -0.052744886975242218 -0.4599196254452409 0.048273002911295777 0.10380983875438769 -0.11808510854158975 0.12981385417488439 0.048273002911295777 0.035007610350076122 1.0000000180025095e-35 0.1355358889343492 0.042296932950922551 0.14976328000031755
decision_type=2 2 2 2 2 2 2 2 2 2 2 2 2 2 2 2 2 2 2 2 2 2 2 2 2 2 2 2 2 2
left_child=1 11 -2 6 13 -3 7 -4 28 10 -6 24 -11 14 15 18 17 -17 -5 20 -8 -22 23 -23 -1 26 27 -10 -7 -30
right_child=2 5 3 4 9 8 19 -9 25 12 -12 -13 -14 -15 -16 16 -18 -19 -20 -21 21 22 -24 -25 -26 -27 -28 -29 29 -31
